{"learner":{"attributes":{"scikit_learn":"{\"_estimator_type\": \"classifier\"}"},"feature_names":[],"feature_types":[],"gradient_booster":{"model":{"gbtree_model_param":{"num_parallel_tree":"1","num_trees":"300"},"iteration_indptr":[0,1,2,3,4,5,6,7,8,9,10,11,12,13,14,15,16,17,18,19,20,21,22,23,24,25,26,27,28,29,30,31,32,33,34,35,36,37,38,39,40,41,42,43,44,45,46,47,48,49,50,51,52,53,54,55,56,57,58,59,60,61,62,63,64,65,66,67,68,69,70,71,72,73,74,75,76,77,78,79,80,81,82,83,84,85,86,87,88,89,90,91,92,93,94,95,96,97,98,99,100,101,102,103,104,105,106,107,108,109,110,111,112,113,114,115,116,117,118,119,120,121,122,123,124,125,126,127,128,129,130,131,132,133,134,135,136,137,138,139,140,141,142,143,144,145,146,147,148,149,150,151,152,153,154,155,156,157,158,159,160,161,162,163,164,165,166,167,168,169,170,171,172,173,174,175,176,177,178,179,180,181,182,183,184,185,186,187,188,189,190,191,192,193,194,195,196,197,198,199,200,201,202,203,204,205,206,207,208,209,210,211,212,213,214,215,216,217,218,219,220,221,222,223,224,225,226,227,228,229,230,231,232,233,234,235,236,237,238,239,240,241,242,243,244,245,246,247,248,249,250,251,252,253,254,255,256,257,258,259,260,261,262,263,264,265,266,267,268,269,270,271,272,273,274,275,276,277,278,279,280,281,282,283,284,285,286,287,288,289,290,291,292,293,294,295,296,297,298,299,300],"tree_info":[0,0,0,0,0,0,0,0,0,0,0,0,0,0,0,0,0,0,0,0,0,0,0,0,0,0,0,0,0,0,0,0,0,0,0,0,0,0,0,0,0,0,0,0,0,0,0,0,0,0,0,0,0,0,0,0,0,0,0,0,0,0,0,0,0,0,0,0,0,0,0,0,0,0,0,0,0,0,0,0,0,0,0,0,0,0,0,0,0,0,0,0,0,0,0,0,0,0,0,0,0,0,0,0,0,0,0,0,0,0,0,0,0,0,0,0,0,0,0,0,0,0,0,0,0,0,0,0,0,0,0,0,0,0,0,0,0,0,0,0,0,0,0,0,0,0,0,0,0,0,0,0,0,0,0,0,0,0,0,0,0,0,0,0,0,0,0,0,0,0,0,0,0,0,0,0,0,0,0,0,0,0,0,0,0,0,0,0,0,0,0,0,0,0,0,0,0,0,0,0,0,0,0,0,0,0,0,0,0,0,0,0,0,0,0,0,0,0,0,0,0,0,0,0,0,0,0,0,0,0,0,0,0,0,0,0,0,0,0,0,0,0,0,0,0,0,0,0,0,0,0,0,0,0,0,0,0,0,0,0,0,0,0,0,0,0,0,0,0,0,0,0,0,0,0,0,0,0,0,0,0,0,0,0,0,0,0,0,0,0,0,0,0,0,0,0,0,0,0,0],"trees":[{"base_weights":[1.519018E-2,1.2711962E0,-1.3334358E0,-9.8913305E-2,1.6148348E0,-1.715756E0,6.088604E-2,1.8089533E0,-8.7246656E-1,-3.6844987E-1,-1.8835881E0,-1.475404E0,1.2313662E0,1.8421482E0,-9.7260274E-2,4.800093E-1,-1.8572788E0,-1.0214591E0,8.780859E-1,2.5987285E-3,-1.8982415E0,-5.495476E-1,-1.7874546E0,9.9778466E-2,-9.907193E-2,1.9045466E0,4.5981467E-1,1.0240412E0,-9.607843E-2,-1.9001731E0,6.718295E-2,-1.8742858E0,-6.3482994E-1,-9.56044E-2,1.4199908E0,-9.2E-2,1.6437014E0,6.8575203E-1,-1.905755E0,5.972177E-1,-1.3366297E0,1.015044E-1,-1.859654E0,5.740107E-2,9.762519E-2,-3.1621385E-2,6.0928207E-2,7.2872005E-2,-9.3333334E-2,-9.719776E-2,5.4506805E-2,-9.873418E-2,6.718295E-2,2.315352E-3,-8.1900954E-2,9.5627375E-2,1.50032E-2,9.110002E-2,3.4161948E-2,-7.333334E-2,8.5997514E-2,-8.916564E-2,-9.994384E-2,6.500682E-2,-6.0954124E-2,-8.243483E-3,-8.91139E-2,-8.4E-2,7.970666E-2,3.93424E-2,-9.5578045E-2],"categories":[],"categories_nodes":[],"categories_segments":[],"categories_sizes":[],"default_left":[0,0,0,0,0,0,0,0,0,0,0,0,0,0,0,0,0,0,0,0,0,0,0,0,0,0,0,0,0,0,0,0,0,0,0,0,0,0,0,0,0,0,0,0,0,0,0,0,0,0,0,0,0,0,0,0,0,0,0,0,0,0,0,0,0,0,0,0,0,0,0],"id":0,"left_children":[1,3,5,-1,7,9,11,13,15,17,19,21,23,25,-1,27,29,31,33,35,37,39,41,-1,-1,43,45,47,-1,49,-1,51,53,-1,55,-1,57,59,61,63,65,67,69,-1,-1,-1,-1,-1,-1,-1,-1,-1,-1,-1,-1,-1,-1,-1,-1,-1,-1,-1,-1,-1,-1,-1,-1,-1,-1,-1,-1],"loss_changes":[1.6020445E4,5.4714565E3,2.4313428E3,0E0,2.140167E3,8.086738E2,1.7683789E3,5.156367E2,4.288776E2,3.246477E2,8.796973E1,1.21885376E2,1.3743022E3,3.5048047E2,0E0,1.798983E2,2.8110779E1,8.502176E1,2.1026169E2,8.023403E1,6.2620117E1,9.886264E1,4.3507263E1,0E0,0E0,1.3915137E2,1.4766568E2,1.4264282E2,0E0,2.6221252E1,0E0,2.8837555E1,1.24039E2,0E0,6.3147568E1,0E0,1.1583061E0,2.4541542E1,3.2342773E1,5.8923046E1,3.351082E1,3.6293705E1,4.3537964E1,0E0,0E0,0E0,0E0,0E0,0E0,0E0,0E0,0E0,0E0,0E0,0E0,0E0,0E0,0E0,0E0,0E0,0E0,0E0,0E0,0E0,0E0,0E0,0E0,0E0,0E0,0E0,0E0],"parents":[2147483647,0,0,1,1,2,2,4,4,5,5,6,6,7,7,8,8,9,9,10,10,11,11,12,12,13,13,15,15,16,16,17,17,18,18,19,19,20,20,21,21,22,22,25,25,26,26,27,27,29,29,31,31,32,32,34,34,36,36,37,37,38,38,39,39,40,40,41,41,42,42],"right_children":[2,4,6,-1,8,10,12,14,16,18,20,22,24,26,-1,28,30,32,34,36,38,40,42,-1,-1,44,46,48,-1,50,-1,52,54,-1,56,-1,58,60,62,64,66,68,70,-1,-1,-1,-1,-1,-1,-1,-1,-1,-1,-1,-1,-1,-1,-1,-1,-1,-1,-1,-1,-1,-1,-1,-1,-1,-1,-1,-1],"split_conditions":[-9.889757E-1,-7.4788475E-1,1.2291844E0,-9.8913305E-2,-1.7472187E-1,-3.9926755E-1,2.6302338E-1,-3.1875357E-2,-1.5076919E0,-1.0048307E-1,-1.8782978E-1,-2.6483747E-1,-2.5285637E-1,1.9639306E-1,-9.7260274E-2,-1.5495385E-1,-1.1994508E-1,-1.157508E-1,-1.1547854E-1,-3.4289467E-1,-4.801397E-1,-3.9421132E-1,-9.6773213E-1,9.9778466E-2,-9.907193E-2,-1.07045926E-1,1.3343874E0,-4.8818227E-2,-9.607843E-2,-3.180393E-1,6.718295E-2,6.634597E0,-4.193901E-1,-9.56044E-2,-9.0273184E-1,-9.2E-2,-1.981808E-1,-7.333299E-2,-4.020847E-1,5.1862013E-1,-1.5578994E0,-1.0704279E-1,1.2419007E0,5.740107E-2,9.762519E-2,-3.1621385E-2,6.0928207E-2,7.2872005E-2,-9.3333334E-2,-9.719776E-2,5.4506805E-2,-9.873418E-2,6.718295E-2,2.315352E-3,-8.1900954E-2,9.5627375E-2,1.50032E-2,9.110002E-2,3.4161948E-2,-7.333334E-2,8.5997514E-2,-8.916564E-2,-9.994384E-2,6.500682E-2,-6.0954124E-2,-8.243483E-3,-8.91139E-2,-8.4E-2,7.970666E-2,3.93424E-2,-9.5578045E-2],"split_indices":[52,102,102,0,17,46,45,4,80,141,93,21,21,157,0,141,101,15,15,42,84,12,52,0,0,57,2,160,0,39,0,137,88,0,100,0,0,34,58,111,85,57,100,0,0,0,0,0,0,0,0,0,0,0,0,0,0,0,0,0,0,0,0,0,0,0,0,0,0,0,0],"split_type":[0,0,0,0,0,0,0,0,0,0,0,0,0,0,0,0,0,0,0,0,0,0,0,0,0,0,0,0,0,0,0,0,0,0,0,0,0,0,0,0,0,0,0,0,0,0,0,0,0,0,0,0,0,0,0,0,0,0,0,0,0,0,0,0,0,0,0,0,0,0,0],"sum_hessian":[9.455825E3,4.8960654E3,4.55976E3,4.677972E2,4.4282686E3,3.5783523E3,9.814075E2,4.107942E3,3.2032663E2,3.967285E2,3.1816238E3,4.242743E2,5.571332E2,4.072442E3,3.55E1,1.3518504E2,1.8514159E2,2.6046307E2,1.3626541E2,2.4533176E1,3.1570906E3,1.0764673E2,3.1662756E2,4.5038315E2,1.0675E2,3.8961904E3,1.7625139E2,1.1068504E2,2.45E1,1.8309439E2,2.0471961E0,8.0047195E1,1.8041588E2,2.175E1,1.1451541E2,1.15E1,1.3033176E1,8.891588E0,3.148199E3,4.3910748E1,6.373598E1,1.1641588E1,3.04986E2,2.3374765E2,3.6624429E3,7.231635E1,1.0393504E2,9.668504E1,1.4E1,1.807972E2,2.2971961E0,7.8E1,2.0471961E0,1.080243E2,7.239159E1,7.904346E1,3.5471962E1,1.0235981E1,2.7971961E0,2.75E0,6.141588E0,1.3686991E3,1.7795E3,3.186355E1,1.2047196E1,1.7938786E1,4.5797195E1,5.25E0,6.391588E0,5.5943923E0,2.993916E2],"tree_param":{"num_deleted":"0","num_feature":"165","num_nodes":"71","size_leaf_vector":"1"}},{"base_weights":[-2.089447E-2,1.2205049E0,-1.2401947E0,-1.8313981E0,1.5544205E0,-1.4611135E0,1.0468704E0,-1.8666767E0,9.8193806E-1,1.7407718E0,-8.646854E-1,-2.9531136E-1,-1.6229129E0,1.535562E0,-1.7542062E0,-1.8837675E0,6.400848E-2,8.4508054E-2,-5.2881945E-2,1.8097311E0,2.9577363E-1,4.0610483E-1,-9.509209E-2,-8.976882E-1,1.5590878E0,-1.7989194E0,-7.159577E-1,-9.155999E-2,1.7679647E0,6.400848E-2,-9.39042E-2,-9.5092915E-2,-7.5585246E-1,1.8258085E0,-8.986795E-2,8.053489E-1,-9.562018E-2,-1.4568229E0,1.5737395E0,3.900492E-1,-1.2647222E0,1.851426E0,-7.819472E-1,-1.4796534E-2,-1.8129491E0,1.4367863E0,-1.4040747E0,1.8643044E0,-8.5837886E-2,7.061874E-2,-8.1144445E-2,2.2710947E-2,9.300547E-2,6.648065E-3,9.126619E-2,-8.678422E-2,4.83854E-2,9.033617E-2,-8.0754034E-2,7.352586E-2,-6.091692E-2,-7.800358E-2,-1.64254E-2,9.548382E-2,-6.162333E-2,7.818564E-2,-8.986364E-2,-8.835502E-2,8.1924E-2,1.2723287E-2,-9.0884864E-2,8.8347934E-2,-8.88155E-2,-2.3451678E-2,-8.1726015E-2,9.4381385E-2,-6.351157E-2],"categories":[],"categories_nodes":[],"categories_segments":[],"categories_sizes":[],"default_left":[0,0,0,0,0,0,0,0,0,0,0,0,0,0,0,0,0,0,0,0,0,0,0,0,0,0,0,0,0,0,0,0,0,0,0,0,0,0,0,0,0,0,0,0,0,0,0,0,0,0,0,0,0,0,0,0,0,0,0,0,0,0,0,0,0,0,0,0,0,0,0,0,0,0,0,0,0],"id":1,"left_children":[1,3,5,7,9,11,13,15,17,19,21,23,25,27,29,31,-1,-1,-1,33,35,37,-1,39,41,43,45,-1,47,-1,-1,-1,49,51,-1,53,-1,55,57,59,61,63,65,67,69,71,73,75,-1,-1,-1,-1,-1,-1,-1,-1,-1,-1,-1,-1,-1,-1,-1,-1,-1,-1,-1,-1,-1,-1,-1,-1,-1,-1,-1,-1,-1],"loss_changes":[1.4181777E4,4.7340186E3,2.3897354E3,4.732141E1,1.8882441E3,8.1264746E2,5.734302E2,2.6774292E1,1.0933044E1,3.8671582E2,3.9619305E2,5.896289E2,6.0294336E2,2.8142688E2,2.5861069E1,7.763916E0,0E0,0E0,0E0,2.183789E2,2.0206897E2,2.9735187E2,0E0,1.8865854E2,9.0061005E1,7.930371E1,9.157716E2,0E0,1.1502466E2,0E0,0E0,0E0,1.8794462E1,1.7290332E2,0E0,9.9544136E1,0E0,3.736583E1,6.52242E1,1.5657321E2,8.521829E1,2.3084412E1,3.871814E1,7.745458E1,3.1332031E1,1.6217108E2,1.0006256E2,2.6129028E1,0E0,0E0,0E0,0E0,0E0,0E0,0E0,0E0,0E0,0E0,0E0,0E0,0E0,0E0,0E0,0E0,0E0,0E0,0E0,0E0,0E0,0E0,0E0,0E0,0E0,0E0,0E0,0E0,0E0],"parents":[2147483647,0,0,1,1,2,2,3,3,4,4,5,5,6,6,7,7,8,8,9,9,10,10,11,11,12,12,13,13,14,14,15,15,19,19,20,20,21,21,23,23,24,24,25,25,26,26,28,28,32,32,33,33,35,35,37,37,38,38,39,39,40,40,41,41,42,42,43,43,44,44,45,45,46,46,47,47],"right_children":[2,4,6,8,10,12,14,16,18,20,22,24,26,28,30,32,-1,-1,-1,34,36,38,-1,40,42,44,46,-1,48,-1,-1,-1,50,52,-1,54,-1,56,58,60,62,64,66,68,70,72,74,76,-1,-1,-1,-1,-1,-1,-1,-1,-1,-1,-1,-1,-1,-1,-1,-1,-1,-1,-1,-1,-1,-1,-1,-1,-1,-1,-1,-1,-1],"split_conditions":[-1.0019298E0,-7.219315E-1,1.5611548E0,3.282506E-1,-1.3953818E-1,-3.9927435E-1,-2.567736E-1,5.6619024E-1,-1.24548644E-1,1.9639306E-1,-1.5324627E-1,4.085964E-1,1.2283126E0,-1.4632438E-1,-3.772319E-1,-3.5235292E-1,6.400848E-2,8.4508054E-2,-5.2881945E-2,-3.1875357E-2,-1.8513471E-1,-1.7915635E-1,-9.509209E-2,-8.517723E-1,-5.4665864E-1,-1.8782978E-1,1.1130987E0,-9.155999E-2,-2.2395314E-1,6.400848E-2,-9.39042E-2,-9.5092915E-2,-1.2255988E0,-1.9879484E-1,-8.986795E-2,-2.715538E-2,-9.562018E-2,1.2173549E0,-3.1875357E-2,-9.591573E-1,-1.5224814E-1,6.8162076E-2,-8.80641E-1,-1.83347E-1,-4.801397E-1,-4.0395358E-1,-6.46649E-1,4.6578348E-1,-8.5837886E-2,7.061874E-2,-8.1144445E-2,2.2710947E-2,9.300547E-2,6.648065E-3,9.126619E-2,-8.678422E-2,4.83854E-2,9.033617E-2,-8.0754034E-2,7.352586E-2,-6.091692E-2,-7.800358E-2,-1.64254E-2,9.548382E-2,-6.162333E-2,7.818564E-2,-8.986364E-2,-8.835502E-2,8.1924E-2,1.2723287E-2,-9.0884864E-2,8.8347934E-2,-8.88155E-2,-2.3451678E-2,-8.1726015E-2,9.4381385E-2,-6.351157E-2],"split_indices":[52,135,99,1,8,46,96,70,3,157,1,1,102,1,40,87,0,0,0,4,93,1,0,89,136,93,135,0,106,0,0,0,138,1,0,72,0,135,4,52,107,3,54,47,84,64,51,51,0,0,0,0,0,0,0,0,0,0,0,0,0,0,0,0,0,0,0,0,0,0,0,0,0,0,0,0,0],"split_type":[0,0,0,0,0,0,0,0,0,0,0,0,0,0,0,0,0,0,0,0,0,0,0,0,0,0,0,0,0,0,0,0,0,0,0,0,0,0,0,0,0,0,0,0,0,0,0,0,0,0,0,0,0,0,0,0,0,0,0,0,0,0,0,0,0,0,0,0,0,0,0,0,0,0,0,0,0],"sum_hessian":[9.367329E3,4.6416006E3,4.725728E3,4.5732083E2,4.18428E3,4.3097856E3,4.1594202E2,4.519895E2,5.331341E0,3.885266E3,2.9901385E2,5.2559314E2,3.7841929E3,3.5453894E2,6.140308E1,4.4994717E2,2.0423262E0,4.0843935E0,1.2469474E0,3.708055E3,1.7721104E2,1.3464574E2,1.6436813E2,3.971124E2,1.2848074E2,3.1683496E3,6.1584314E2,2.2448816E1,3.3209012E2,2.0423262E0,5.9360756E1,4.42169E2,7.778155E0,3.6920925E3,1.5962486E1,1.4450037E2,3.2710682E1,5.1781757E1,8.2863976E1,8.806699E1,3.0904538E2,1.14403656E2,1.4077086E1,2.4736324E1,3.1436133E3,1.4890677E2,4.6693637E2,3.2360855E2,8.481579E0,2.0421968E0,5.735958E0,9.042712E1,3.6016653E3,8.777061E1,5.672975E1,4.669515E1,5.0866065E0,7.762585E1,5.238136E0,5.2730137E1,3.5336853E1,2.3442462E2,7.4620766E1,1.12656494E2,1.7471615E0,4.089407E0,9.9876795E0,1.1975098E1,1.2761226E1,7.082802E0,3.1365305E3,1.3543933E2,1.3467439E1,9.292509E1,3.7401126E2,3.216133E2,1.9952275E0],"tree_param":{"num_deleted":"0","num_feature":"165","num_nodes":"77","size_leaf_vector":"1"}},{"base_weights":[-3.74849E-3,1.1477677E0,-1.2341387E0,-1.7551045E0,1.4659686E0,-1.4374369E0,9.2521834E-1,5.5728506E-2,-1.771381E0,1.6345389E0,-8.808414E-1,-1.0620446E0,-9.139512E-2,1.4399513E0,-9.019199E-2,-9.017252E-2,-9.427095E-1,1.6685987E0,-8.992388E-2,4.835638E-1,-1.7808695E0,-1.2698548E0,9.357913E-2,-1.5531874E0,1.7650508E0,9.413783E-1,-8.532654E-2,1.8129027E0,1.1325146E0,9.551601E-1,-8.7873526E-2,-9.1243185E-2,6.550662E-2,-1.9904143E-1,-1.5094317E0,6.2104043E-2,-8.9012645E-2,-7.1314E-2,1.8079222E0,-5.055056E-2,8.07307E-2,9.0783566E-2,-7.171445E-2,7.899089E-2,-2.9050838E-3,6.435497E-2,-8.5214995E-2,-9.148135E-2,1.4058444E-2,-1.617714E-2,-8.046951E-2,9.086079E-2,3.0838901E-2],"categories":[],"categories_nodes":[],"categories_segments":[],"categories_sizes":[],"default_left":[0,0,0,0,0,0,0,0,0,0,0,0,0,0,0,0,0,0,0,0,0,0,0,0,0,0,0,0,0,0,0,0,0,0,0,0,0,0,0,0,0,0,0,0,0,0,0,0,0,0,0,0,0],"id":2,"left_children":[1,3,5,7,9,11,13,-1,15,17,19,21,-1,23,-1,-1,25,27,-1,29,31,33,-1,35,37,39,-1,41,43,45,-1,-1,-1,47,49,-1,-1,-1,51,-1,-1,-1,-1,-1,-1,-1,-1,-1,-1,-1,-1,-1,-1],"loss_changes":[1.318549E4,4.4430635E3,1.9764185E3,2.4177368E1,1.7155654E3,6.008428E2,5.472739E2,0E0,1.087146E1,4.757295E2,3.5824203E2,1.2820352E3,0E0,3.207118E2,0E0,0E0,2.998635E1,3.0767285E2,0E0,1.2475941E2,2.6265564E1,5.027246E2,0E0,2.2868965E1,4.2970337E1,9.95672E0,0E0,3.0949219E1,4.5374146E2,8.7699455E1,0E0,0E0,0E0,2.8212152E2,1.893977E2,0E0,0E0,0E0,2.1087646E0,0E0,0E0,0E0,0E0,0E0,0E0,0E0,0E0,0E0,0E0,0E0,0E0,0E0,0E0],"parents":[2147483647,0,0,1,1,2,2,3,3,4,4,5,5,6,6,8,8,9,9,10,10,11,11,13,13,16,16,17,17,19,19,20,20,21,21,23,23,24,24,25,25,27,27,28,28,29,29,33,33,34,34,38,38],"right_children":[2,4,6,8,10,12,14,-1,16,18,20,22,-1,24,-1,-1,26,28,-1,30,32,34,-1,36,38,40,-1,42,44,46,-1,-1,-1,48,50,-1,-1,-1,52,-1,-1,-1,-1,-1,-1,-1,-1,-1,-1,-1,-1,-1,-1],"split_conditions":[-9.889757E-1,-7.4788475E-1,1.7783779E0,-1.3579217E0,-1.6466764E-1,-4.039635E-1,-3.00171E-1,5.5728506E-2,-6.4372426E-1,-3.1875357E-2,-1.5355521E0,-4.0401256E-1,-9.139512E-2,-1.3744508E-1,-9.019199E-2,-9.017252E-2,-2.6483467E-1,-8.517664E-1,-8.992388E-2,-4.8818227E-2,-1.3162626E-1,-3.7714404E-1,9.357913E-2,-1.7106707E-1,-2.5941625E-1,-2.0474304E-1,-8.532654E-2,-5.411137E-1,-1.0613744E-1,-4.719413E-1,-8.7873526E-2,-9.1243185E-2,6.550662E-2,-1.0704608E-1,-2.362238E-1,6.2104043E-2,-8.9012645E-2,-7.1314E-2,-4.02982E-1,-5.055056E-2,8.07307E-2,9.0783566E-2,-7.171445E-2,7.899089E-2,-2.9050838E-3,6.435497E-2,-8.5214995E-2,-9.148135E-2,1.4058444E-2,-1.617714E-2,-8.046951E-2,9.086079E-2,3.0838901E-2],"split_indices":[52,102,102,100,17,58,94,0,51,4,79,58,0,10,0,0,27,89,0,160,101,40,0,7,27,0,0,53,162,82,0,0,0,57,126,0,0,0,66,0,0,0,0,0,0,0,0,0,0,0,0,0,0],"split_type":[0,0,0,0,0,0,0,0,0,0,0,0,0,0,0,0,0,0,0,0,0,0,0,0,0,0,0,0,0,0,0,0,0,0,0,0,0,0,0,0,0,0,0,0,0,0,0,0,0,0,0,0,0],"sum_hessian":[9.304435E3,4.8063047E3,4.49813E3,4.743554E2,4.331949E3,4.111387E3,3.867429E2,2.2947524E0,4.7206064E2,4.0419233E3,2.900261E2,2.0980483E3,2.0133386E3,3.2577097E2,6.097194E1,4.5334018E2,1.8720474E1,4.0027253E3,3.919798E1,1.1545851E2,1.745676E2,1.9597894E3,1.3825899E2,3.1546822E1,2.9422412E2,5.33309E0,1.3387384E1,3.1519072E3,8.5081805E2,9.585985E1,1.9598661E1,1.7252171E2,2.0458782E0,3.5864044E2,1.601149E3,2.034249E0,2.9512573E1,3.4723918E0,2.9075174E2,1.23881E0,4.0942802E0,3.1496626E3,2.244536E0,6.1822864E2,2.3258945E2,8.568157E1,1.0178276E1,8.0952126E1,2.776883E2,1.24798676E2,1.4763503E3,2.8797928E2,2.7724757E0],"tree_param":{"num_deleted":"0","num_feature":"165","num_nodes":"53","size_leaf_vector":"1"}},{"base_weights":[-3.0404502E-3,1.0965409E0,-1.1710299E0,-1.6598247E0,1.408755E0,-1.3659214E0,9.4655424E-1,-1.7207699E0,1.0241452E0,1.6005533E0,-5.161206E-1,-1.6369971E0,-7.992889E-1,1.4346765E0,-8.634492E-2,-1.7356877E0,5.937734E-2,8.5554376E-2,-6.250393E-2,1.6677474E0,2.0895143E-1,7.5075245E-1,-1.6575401E0,-1.2527754E0,-1.6917871E0,4.804423E-1,-1.4485841E0,-1.4485897E0,1.7082233E0,-8.755437E-2,-1.2065564E0,3.2041553E-1,1.7023112E0,-3.8520762E-1,1.6030766E0,1.2981806E0,-1.580106E0,-1.7288777E0,3.0812455E-2,-1.3853188E0,-1.0626856E-1,-1.6978446E0,-7.263425E-1,1.120649E0,-8.7201804E-2,6.4083946E-1,-1.5248204E0,6.0265508E-2,-8.493062E-2,-6.499238E-2,1.740745E0,5.9408903E-2,-8.363434E-2,-3.2319274E-2,6.081598E-2,8.562247E-2,-8.0493785E-2,-7.617346E-2,6.939813E-3,8.517752E-2,-5.825454E-2,-9.034189E-2,8.489361E-2,6.1255872E-2,-8.931347E-2,-8.84544E-2,-2.9584697E-2,5.5895783E-2,-6.995277E-2,-7.2477005E-2,1.5650583E-2,3.4451004E-2,-8.379292E-2,-8.032804E-2,-8.7726526E-2,7.706749E-2,-8.150544E-2,6.783041E-2,-8.751903E-2,-8.099576E-2,8.289632E-2,-1.0450582E-2,-7.996916E-2,8.734468E-2,3.6928292E-2],"categories":[],"categories_nodes":[],"categories_segments":[],"categories_sizes":[],"default_left":[0,0,0,0,0,0,0,0,0,0,0,0,0,0,0,0,0,0,0,0,0,0,0,0,0,0,0,0,0,0,0,0,0,0,0,0,0,0,0,0,0,0,0,0,0,0,0,0,0,0,0,0,0,0,0,0,0,0,0,0,0,0,0,0,0,0,0,0,0,0,0,0,0,0,0,0,0,0,0,0,0,0,0,0,0],"id":3,"left_children":[1,3,5,7,9,11,13,15,17,19,21,23,25,27,-1,29,-1,-1,-1,31,33,35,37,39,41,43,45,47,49,-1,51,53,55,57,59,61,63,65,67,69,71,73,75,77,-1,79,81,-1,-1,-1,83,-1,-1,-1,-1,-1,-1,-1,-1,-1,-1,-1,-1,-1,-1,-1,-1,-1,-1,-1,-1,-1,-1,-1,-1,-1,-1,-1,-1,-1,-1,-1,-1,-1,-1],"loss_changes":[1.1870125E4,4.0992485E3,1.85094E3,8.1069336E1,1.5797773E3,6.2914746E2,4.9616354E2,2.2645142E1,1.9935726E1,3.6335254E2,5.627282E2,5.6306152E1,1.1059436E3,2.5521558E2,0E0,1.7368164E0,0E0,0E0,0E0,1.7223535E2,1.4996623E2,2.3775095E2,2.4692444E1,5.307428E1,1.2955566E1,6.406279E2,1.4157898E2,2.0831364E1,3.093988E1,0E0,2.0490955E1,8.223256E1,1.2422266E2,7.60968E1,1.7024017E1,1.8939577E2,2.276757E1,7.929199E0,1.5982439E1,3.468524E1,4.781037E1,9.65332E0,3.7097603E1,2.3870255E2,0E0,7.5751854E1,8.324585E1,0E0,0E0,0E0,4.9945068E-1,0E0,0E0,0E0,0E0,0E0,0E0,0E0,0E0,0E0,0E0,0E0,0E0,0E0,0E0,0E0,0E0,0E0,0E0,0E0,0E0,0E0,0E0,0E0,0E0,0E0,0E0,0E0,0E0,0E0,0E0,0E0,0E0,0E0,0E0],"parents":[2147483647,0,0,1,1,2,2,3,3,4,4,5,5,6,6,7,7,8,8,9,9,10,10,11,11,12,12,13,13,15,15,19,19,20,20,21,21,22,22,23,23,24,24,25,25,26,26,27,27,28,28,30,30,31,31,32,32,33,33,34,34,35,35,36,36,37,37,38,38,39,39,40,40,41,41,42,42,43,43,45,45,46,46,50,50],"right_children":[2,4,6,8,10,12,14,16,18,20,22,24,26,28,-1,30,-1,-1,-1,32,34,36,38,40,42,44,46,48,50,-1,52,54,56,58,60,62,64,66,68,70,72,74,76,78,-1,80,82,-1,-1,-1,84,-1,-1,-1,-1,-1,-1,-1,-1,-1,-1,-1,-1,-1,-1,-1,-1,-1,-1,-1,-1,-1,-1,-1,-1,-1,-1,-1,-1,-1,-1,-1,-1,-1,-1],"split_conditions":[-9.889757E-1,-6.385638E-1,1.5611548E0,4.085964E-1,-1.9461322E-1,-2.492418E-2,-3.00171E-1,-2.950047E-2,-7.637096E-2,2.1423672E-1,-1.5355521E0,-3.573108E-1,-1.972958E-1,-1.6506973E-1,-8.634492E-2,-3.5235292E-1,5.937734E-2,8.5554376E-2,-6.250393E-2,-1.9879484E-1,-2.714843E-2,-1.5180121E-1,-6.4569074E-1,1.1135035E0,1.7780509E0,-4.0395358E-1,-1.8782978E-1,-1.7106707E-1,-2.5941908E-1,-8.755437E-2,-1.007003E0,1.3343874E0,-3.1864755E-2,-1.0070208E0,3.0834509E-2,-1.99633E-1,-3.9422464E-1,-3.536367E-1,-1.1477049E-1,2.0425847E0,-6.3106954E-2,-4.125902E-1,-1.8763207E-1,-3.9410584E-2,-8.7201804E-2,-3.4289467E-1,-3.7699765E-1,6.0265508E-2,-8.493062E-2,-6.499238E-2,9.2109835E-1,5.9408903E-2,-8.363434E-2,-3.2319274E-2,6.081598E-2,8.562247E-2,-8.0493785E-2,-7.617346E-2,6.939813E-3,8.517752E-2,-5.825454E-2,-9.034189E-2,8.489361E-2,6.1255872E-2,-8.931347E-2,-8.84544E-2,-2.9584697E-2,5.5895783E-2,-6.995277E-2,-7.2477005E-2,1.5650583E-2,3.4451004E-2,-8.379292E-2,-8.032804E-2,-8.7726526E-2,7.706749E-2,-8.150544E-2,6.783041E-2,-8.751903E-2,-8.099576E-2,8.289632E-2,-1.0450582E-2,-7.996916E-2,8.734468E-2,3.6928292E-2],"split_indices":[52,102,99,1,17,1,94,69,3,158,79,42,41,0,0,87,0,0,0,1,72,1,51,135,102,64,93,7,21,0,52,2,13,52,88,1,59,87,105,75,105,82,93,52,0,42,40,0,0,0,88,0,0,0,0,0,0,0,0,0,0,0,0,0,0,0,0,0,0,0,0,0,0,0,0,0,0,0,0,0,0,0,0,0,0],"split_type":[0,0,0,0,0,0,0,0,0,0,0,0,0,0,0,0,0,0,0,0,0,0,0,0,0,0,0,0,0,0,0,0,0,0,0,0,0,0,0,0,0,0,0,0,0,0,0,0,0,0,0,0,0,0,0,0,0,0,0,0,0,0,0,0,0,0,0,0,0,0,0,0,0,0,0,0,0,0,0,0,0,0,0,0,0],"sum_hessian":[9.24049E3,4.75966E3,4.48083E3,4.838346E2,4.275825E3,4.1035186E3,3.7731158E2,4.7344293E2,1.0391658E1,3.888533E3,3.8729233E2,2.7743745E3,1.3291439E3,3.1944946E2,5.786212E1,4.71428E2,2.0149305E0,8.171137E0,2.2205215E0,3.7092324E3,1.7930055E2,1.837209E2,2.0357143E2,3.492292E2,2.4251455E3,4.47467E2,8.8167694E2,2.7308975E1,2.921405E2,4.5585165E2,1.5576358E1,9.303143E1,3.6162012E3,1.262276E2,5.307296E1,1.4913737E2,3.458353E1,1.9529564E2,8.275788E0,3.1285312E2,3.637606E1,2.4092703E3,1.5875161E1,3.4785132E2,9.961568E1,3.0776405E1,8.509005E2,2.0222917E0,2.5286684E1,2.707873E0,2.8943262E2,2.2855213E0,1.3290836E1,4.4879227E1,4.815221E1,3.6056475E3,1.0553517E1,3.919006E1,8.703754E1,5.158521E1,1.4877508E0,1.660674E1,1.3253062E2,2.0292654E0,3.2554264E1,1.880892E2,7.206435E0,4.825338E0,3.4504507E0,3.01595E2,1.1258109E1,2.4515453E1,1.1860608E1,9.342099E2,1.4750603E3,4.3228855E0,1.1552276E1,3.219213E2,2.5930037E1,9.365752E0,2.1410652E1,4.583599E1,8.050645E2,2.869291E2,2.503505E0],"tree_param":{"num_deleted":"0","num_feature":"165","num_nodes":"85","size_leaf_vector":"1"}},{"base_weights":[5.398188E-3,1.1052866E0,-1.1100466E0,-1.6352458E0,1.3904169E0,-1.3215216E0,9.8915255E-1,-1.6681566E0,8.7306756E-1,1.5570273E0,-7.4871224E-1,-9.8828566E-1,-8.471178E-2,1.3806839E0,-1.4384893E0,-8.4280424E-2,-6.7702353E-1,7.507327E-2,-4.7768407E-2,1.5833591E0,-8.3512545E-2,4.954208E-1,-1.6494112E0,-1.17997E0,8.6229146E-2,-8.102346E-2,1.5562526E0,5.6093927E-2,-1.5480818E0,6.9206744E-2,-7.3461175E-2,4.16467E-1,1.6326308E0,1.1576729E0,-1.4779434E0,-8.4552E-2,6.3636385E-2,-2.850348E-1,-1.4329009E0,1.6448834E0,-7.703646E-2,-8.315922E-2,-5.853339E-1,-1.2580476E-2,8.3156556E-2,8.2903884E-2,3.3546995E-2,-8.472263E-2,8.1232145E-2,6.49116E-2,-8.5315816E-2,-4.3415736E-2,7.1322426E-2,2.9889852E-2,-7.388362E-2,8.349348E-2,-6.1345726E-2,5.6093927E-2,-6.94829E-2],"categories":[],"categories_nodes":[],"categories_segments":[],"categories_sizes":[],"default_left":[0,0,0,0,0,0,0,0,0,0,0,0,0,0,0,0,0,0,0,0,0,0,0,0,0,0,0,0,0,0,0,0,0,0,0,0,0,0,0,0,0,0,0,0,0,0,0,0,0,0,0,0,0,0,0,0,0,0,0],"id":4,"left_children":[1,3,5,7,9,11,13,15,17,19,21,23,-1,25,27,-1,29,-1,-1,31,-1,33,35,37,-1,-1,39,-1,41,-1,-1,43,45,47,49,-1,-1,51,53,55,-1,-1,57,-1,-1,-1,-1,-1,-1,-1,-1,-1,-1,-1,-1,-1,-1,-1,-1],"loss_changes":[1.1247293E4,3.609209E3,2.0218765E3,3.7403442E1,1.4914536E3,5.1195312E2,3.984726E2,6.2993164E0,8.668331E0,3.3233594E2,3.4015997E2,1.138655E3,0E0,1.920578E2,1.8129845E1,0E0,1.691605E1,0E0,0E0,2.2060547E2,0E0,1.6890758E2,2.3548126E1,4.6183325E2,0E0,0E0,9.5954285E1,0E0,5.281372E0,0E0,0E0,1.3140514E2,8.925098E1,1.3107886E2,2.2874863E1,0E0,0E0,4.5168066E2,1.456123E2,2.58255E1,0E0,0E0,1.1954751E1,0E0,0E0,0E0,0E0,0E0,0E0,0E0,0E0,0E0,0E0,0E0,0E0,0E0,0E0,0E0,0E0],"parents":[2147483647,0,0,1,1,2,2,3,3,4,4,5,5,6,6,7,7,8,8,9,9,10,10,11,11,13,13,14,14,16,16,19,19,21,21,22,22,23,23,26,26,28,28,31,31,32,32,33,33,34,34,37,37,38,38,39,39,42,42],"right_children":[2,4,6,8,10,12,14,16,18,20,22,24,-1,26,28,-1,30,-1,-1,32,-1,34,36,38,-1,-1,40,-1,42,-1,-1,44,46,48,50,-1,-1,52,54,56,-1,-1,58,-1,-1,-1,-1,-1,-1,-1,-1,-1,-1,-1,-1,-1,-1,-1,-1],"split_conditions":[-1.0019298E0,-5.8674645E-1,1.5611548E0,3.282506E-1,-1.7472187E-1,-4.0032983E-1,-1.2531887E-1,-3.5235292E-1,-2.0399655E-1,-3.1864755E-2,-1.5355521E0,5.0376415E-1,-8.471178E-2,-1.4632438E-1,1.6228968E0,-8.4280424E-2,-1.2255988E0,7.507327E-2,-4.7768407E-2,-1.9879484E-1,-8.3512545E-2,-1.5180121E-1,-3.180393E-1,-3.9926755E-1,8.6229146E-2,-8.102346E-2,-2.2395314E-1,5.6093927E-2,2.030878E0,6.9206744E-2,-7.3461175E-2,-3.6967333E-2,1.9639306E-1,-2.0769648E-1,-1.7383873E-1,-8.4552E-2,6.3636385E-2,4.085964E-1,-1.8782978E-1,-3.9410584E-2,-7.703646E-2,-8.315922E-2,-1.1550836E-1,-1.2580476E-2,8.3156556E-2,8.2903884E-2,3.3546995E-2,-8.472263E-2,8.1232145E-2,6.49116E-2,-8.5315816E-2,-4.3415736E-2,7.1322426E-2,2.9889852E-2,-7.388362E-2,8.349348E-2,-6.1345726E-2,5.6093927E-2,-6.94829E-2],"split_indices":[52,99,99,1,17,58,130,87,0,13,79,45,0,1,135,0,138,0,0,1,0,1,39,46,0,0,106,0,87,0,0,70,157,1,0,0,0,1,93,52,0,0,15,0,0,0,0,0,0,0,0,0,0,0,0,0,0,0,0],"split_type":[0,0,0,0,0,0,0,0,0,0,0,0,0,0,0,0,0,0,0,0,0,0,0,0,0,0,0,0,0,0,0,0,0,0,0,0,0,0,0,0,0,0,0,0,0,0,0,0,0,0,0,0,0,0,0,0,0,0,0],"sum_hessian":[9.165507E3,4.614939E3,4.5505684E3,4.3445316E2,4.180486E3,4.1344326E3,4.161355E2,4.2915726E2,5.295887E0,3.8786604E3,3.018253E2,2.1847468E3,1.949686E3,3.587133E2,5.7422207E1,4.2104285E2,8.114402E0,4.0744147E0,1.2214721E0,3.8477754E3,3.088505E1,1.2693722E2,1.7488808E2,2.0410934E3,1.4365343E2,1.937026E1,3.3934302E2,1.9778404E0,5.5444366E1,2.045412E0,6.0689898E0,1.56272E2,3.6915034E3,9.535116E1,3.1586065E1,1.72847E2,2.0410724E0,4.5022098E2,1.5908723E3,3.303576E2,8.985433E0,4.8873665E1,6.5707006E0,1.02266464E2,5.4005535E1,3.5956367E3,9.5866776E1,1.3045315E1,8.230584E1,2.0447476E0,2.9541317E1,3.3615182E2,1.1406915E2,3.4051437E1,1.5568209E3,3.27923E2,2.4345825E0,1.9778404E0,4.59286E0],"tree_param":{"num_deleted":"0","num_feature":"165","num_nodes":"59","size_leaf_vector":"1"}},{"base_weights":[1.6904818E-2,1.0747832E0,-1.0543023E0,-1.5801878E0,1.3455222E0,-1.2519298E0,9.6176E-1,-1.6125804E0,9.411057E-1,1.513571E0,-5.5409116E-1,-9.103707E-1,-8.189292E-2,1.3486818E0,-1.4903972E0,-8.149545E-2,-5.272438E-1,2.481289E-2,6.0835995E-2,1.5339113E0,-8.0365695E-2,4.9370354E-1,-8.247315E-2,-1.1028795E0,1.659234E0,-7.889728E-2,1.5312262E0,5.9133884E-2,-8.0640905E-2,6.6843204E-2,-6.912891E-2,4.973753E-1,1.5790104E0,-1.067035E0,1.4495076E0,-1.7434677E-1,-1.3661317E0,8.352955E-2,3.406009E-2,1.5927603E0,-7.1724236E-2,-3.5635305E-3,8.0475114E-2,7.92461E-2,-9.378397E-2,6.737042E-2,-6.204159E-2,8.1701405E-2,-3.7740164E-2,-3.706127E-2,7.1619295E-2,-6.946193E-2,8.414109E-2,8.114041E-2,-6.400194E-2],"categories":[],"categories_nodes":[],"categories_segments":[],"categories_sizes":[],"default_left":[0,0,0,0,0,0,0,0,0,0,0,0,0,0,0,0,0,0,0,0,0,0,0,0,0,0,0,0,0,0,0,0,0,0,0,0,0,0,0,0,0,0,0,0,0,0,0,0,0,0,0,0,0,0,0],"id":5,"left_children":[1,3,5,7,9,11,13,15,17,19,21,23,-1,25,27,-1,29,-1,-1,31,-1,33,-1,35,37,-1,39,-1,-1,-1,-1,41,43,45,47,49,51,-1,-1,53,-1,-1,-1,-1,-1,-1,-1,-1,-1,-1,-1,-1,-1,-1,-1],"loss_changes":[1.0322862E4,3.296561E3,1.8045762E3,3.6193726E1,1.32871E3,5.419346E2,3.859327E2,7.031372E0,1.3393211E-1,2.450752E2,3.8966992E2,1.08479E3,0E0,1.8941138E2,2.0109047E1,0E0,1.4718031E1,0E0,0E0,1.7673926E2,0E0,2.6101315E2,0E0,4.9774805E2,5.6121826E-1,0E0,6.250354E1,0E0,0E0,0E0,0E0,1.01174164E2,7.7288086E1,2.96344E1,4.5281708E1,4.1198508E2,1.1415259E2,0E0,0E0,3.0023376E1,0E0,0E0,0E0,0E0,0E0,0E0,0E0,0E0,0E0,0E0,0E0,0E0,0E0,0E0,0E0],"parents":[2147483647,0,0,1,1,2,2,3,3,4,4,5,5,6,6,7,7,8,8,9,9,10,10,11,11,13,13,14,14,16,16,19,19,21,21,23,23,24,24,26,26,31,31,32,32,33,33,34,34,35,35,36,36,39,39],"right_children":[2,4,6,8,10,12,14,16,18,20,22,24,-1,26,28,-1,30,-1,-1,32,-1,34,-1,36,38,-1,40,-1,-1,-1,-1,42,44,46,48,50,52,-1,-1,54,-1,-1,-1,-1,-1,-1,-1,-1,-1,-1,-1,-1,-1,-1,-1],"split_conditions":[-1.0019298E0,-5.8674645E-1,1.5611548E0,3.282506E-1,-1.8690397E-1,-4.0032983E-1,-3.00171E-1,-3.5235292E-1,-2.6483473E-1,-3.1875357E-2,-1.5180121E-1,5.0376415E-1,-8.189292E-2,-1.4632438E-1,-3.772319E-1,-8.149545E-2,-1.2255988E0,2.481289E-2,6.0835995E-2,-1.9879484E-1,-8.0365695E-2,-1.7733558E-1,-8.247315E-2,-3.7714404E-1,-1.24548644E-1,-7.889728E-2,-2.2395314E-1,5.9133884E-2,-8.0640905E-2,6.6843204E-2,-6.912891E-2,-3.695571E-2,-5.435565E-1,-5.8022518E-2,-1.5076919E0,4.085964E-1,-8.124035E-2,8.352955E-2,3.406009E-2,4.6578348E-1,-7.1724236E-2,-3.5635305E-3,8.0475114E-2,7.92461E-2,-9.378397E-2,6.737042E-2,-6.204159E-2,8.1701405E-2,-3.7740164E-2,-3.706127E-2,7.1619295E-2,-6.946193E-2,8.414109E-2,8.114041E-2,-6.400194E-2],"split_indices":[52,99,99,1,17,58,94,87,27,4,1,45,0,1,40,0,138,0,0,1,0,1,0,40,3,0,106,0,0,0,0,70,53,160,80,1,63,0,0,51,0,0,0,0,0,0,0,0,0,0,0,0,0,0,0],"split_type":[0,0,0,0,0,0,0,0,0,0,0,0,0,0,0,0,0,0,0,0,0,0,0,0,0,0,0,0,0,0,0,0,0,0,0,0,0,0,0,0,0,0,0,0,0,0,0,0,0,0,0,0,0,0,0],"sum_hessian":[9.107423E3,4.5822173E3,4.5252056E3,4.2358105E2,4.158636E3,4.1215625E3,4.0364313E2,4.185639E2,5.017135E0,3.8208308E3,3.3780554E2,2.1882507E3,1.9333118E3,3.4902158E2,5.4621544E1,4.1149228E2,7.071642E0,2.9906714E0,2.026464E0,3.796595E3,2.423577E1,1.7293307E2,1.6487248E2,2.036269E3,1.5198175E2,2.0042797E1,3.289788E2,2.0127232E0,5.260882E1,2.0471435E0,5.0244985E0,1.5880144E2,3.6377937E3,6.563724E1,1.0729584E2,4.5015643E2,1.5861125E3,1.4953723E2,2.4445205E0,3.2274524E2,6.233551E0,1.0569436E2,5.310707E1,3.6321196E3,5.673967E0,3.9540117E0,6.1683228E1,9.924671E1,8.049122E0,3.3315366E2,1.1700276E2,1.5747227E3,1.1389874E1,3.1983505E2,2.910175E0],"tree_param":{"num_deleted":"0","num_feature":"165","num_nodes":"55","size_leaf_vector":"1"}},{"base_weights":[-8.169584E-3,9.9583393E-1,-1.0295367E0,-1.5245613E0,1.2760153E0,-1.2114896E0,8.7948626E-1,-1.554522E0,4.5254302E-1,1.4574939E0,-4.399987E-1,-8.6891055E-1,-1.5841213E0,1.2695551E0,-1.4455863E0,-1.5686861E0,5.3499054E-2,-5.6635298E-2,7.102324E-2,1.476765E0,-7.832288E-2,6.698839E-1,-1.5446519E0,-1.0463771E0,8.079882E-2,2.607185E-2,-7.938551E-2,-7.65711E-2,1.4758651E0,4.759201E-2,-7.8259304E-2,-7.9217635E-2,-7.9523927E-1,-2.4642545E-1,1.5054935E0,1.1494493E0,-1.438742E0,-1.5814375E0,6.283474E-2,-1.5624689E0,-5.9014505E-1,1.5351276E0,-6.918355E-2,5.4255486E-2,-7.191863E-2,-5.0284512E-2,6.968415E-2,7.594732E-2,-2.9477188E-2,-8.415494E-2,7.572947E-2,5.3784996E-2,-8.214184E-2,4.3656286E-2,-8.072654E-2,-2.7834652E-2,-8.04025E-2,3.105158E-4,-6.390126E-2,7.83293E-2,-6.27312E-2],"categories":[],"categories_nodes":[],"categories_segments":[],"categories_sizes":[],"default_left":[0,0,0,0,0,0,0,0,0,0,0,0,0,0,0,0,0,0,0,0,0,0,0,0,0,0,0,0,0,0,0,0,0,0,0,0,0,0,0,0,0,0,0,0,0,0,0,0,0,0,0,0,0,0,0,0,0,0,0,0,0],"id":6,"left_children":[1,3,5,7,9,11,13,15,17,19,21,23,25,27,29,31,-1,-1,-1,33,-1,35,37,39,-1,-1,-1,-1,41,-1,-1,-1,43,45,47,49,51,53,-1,55,57,59,-1,-1,-1,-1,-1,-1,-1,-1,-1,-1,-1,-1,-1,-1,-1,-1,-1,-1,-1],"loss_changes":[8.988188E3,3.1232817E3,1.5102949E3,2.6924927E1,1.2396084E3,5.050713E2,3.45265E2,1.7896606E1,1.2936535E1,2.1199658E2,4.684875E2,9.1417993E2,1.5178223E1,1.899524E2,1.722242E1,4.0029297E0,0E0,0E0,0E0,1.7739453E2,0E0,1.9467947E2,2.170987E1,4.5395557E2,0E0,0E0,0E0,0E0,5.3476196E1,0E0,0E0,0E0,1.4416862E1,7.5493004E1,1.0003174E2,1.6396913E2,2.014579E1,1.6790527E1,0E0,4.063379E1,4.213122E2,2.8061157E1,0E0,0E0,0E0,0E0,0E0,0E0,0E0,0E0,0E0,0E0,0E0,0E0,0E0,0E0,0E0,0E0,0E0,0E0,0E0],"parents":[2147483647,0,0,1,1,2,2,3,3,4,4,5,5,6,6,7,7,8,8,9,9,10,10,11,11,12,12,13,13,14,14,15,15,19,19,21,21,22,22,23,23,28,28,32,32,33,33,34,34,35,35,36,36,37,37,39,39,40,40,41,41],"right_children":[2,4,6,8,10,12,14,16,18,20,22,24,26,28,30,32,-1,-1,-1,34,-1,36,38,40,-1,-1,-1,-1,42,-1,-1,-1,44,46,48,50,52,54,-1,56,58,60,-1,-1,-1,-1,-1,-1,-1,-1,-1,-1,-1,-1,-1,-1,-1,-1,-1,-1,-1],"split_conditions":[-8.7363905E-1,-7.219315E-1,1.5611548E0,-6.4372426E-1,-1.9750547E-1,-4.0395358E-1,-3.00171E-1,-1.0028135E-1,-2.3937239E-1,-3.1875357E-2,-1.5355521E0,-4.0400267E-1,-8.6874026E-1,-1.4632438E-1,-1.5495454E-1,-3.5235292E-1,5.3499054E-2,-5.6635298E-2,7.102324E-2,-2.292858E-1,-7.832288E-2,-1.5180121E-1,-3.180393E-1,-1.1547854E-1,8.079882E-2,2.607185E-2,-7.938551E-2,-7.65711E-2,1.179642E-1,4.759201E-2,-7.8259304E-2,-7.9217635E-2,-3.5210288E-1,-6.4636827E-1,-5.4341596E-1,-1.99633E-1,-2.159639E-1,-1.5330385E-1,6.283474E-2,-2.3644447E-1,-3.2732597E-1,6.132389E-2,-6.918355E-2,5.4255486E-2,-7.191863E-2,-5.0284512E-2,6.968415E-2,7.594732E-2,-2.9477188E-2,-8.415494E-2,7.572947E-2,5.3784996E-2,-8.214184E-2,4.3656286E-2,-8.072654E-2,-2.7834652E-2,-8.04025E-2,3.105158E-4,-6.390126E-2,7.83293E-2,-6.27312E-2],"split_indices":[54,135,99,51,17,64,94,57,1,4,79,64,54,1,130,87,0,0,0,1,0,1,39,15,0,0,0,0,1,0,0,0,87,51,53,1,108,130,0,126,28,139,0,0,0,0,0,0,0,0,0,0,0,0,0,0,0,0,0,0,0],"split_type":[0,0,0,0,0,0,0,0,0,0,0,0,0,0,0,0,0,0,0,0,0,0,0,0,0,0,0,0,0,0,0,0,0,0,0,0,0,0,0,0,0,0,0,0,0,0,0,0,0,0,0,0,0,0,0,0,0,0,0,0,0],"sum_hessian":[8.7630625E3,4.419107E3,4.3439556E3,4.4166147E2,3.9774456E3,3.9662861E3,3.7766928E2,4.3527902E2,6.3824224E0,3.5971738E3,3.8027182E2,2.0682097E3,1.8980765E3,3.2380045E2,5.3868835E1,4.3334262E2,1.9364048E0,2.3550723E0,4.0273504E0,3.574903E3,2.2270624E1,1.8988324E2,1.9038857E2,1.9308878E3,1.3732191E2,2.984104E0,1.8950924E3,2.1773165E1,3.0202728E2,2.2289999E0,5.1639835E1,4.2371176E2,9.630868E0,5.849795E1,3.5164053E3,1.5507042E2,3.4812828E1,1.8835072E2,2.037843E0,9.0487E2,1.0260178E3,2.9634875E2,5.6785345E0,2.2793725E0,7.3514957E0,4.0251095E1,1.8246857E1,3.4942424E3,2.2162773E1,1.7295134E1,1.3777528E2,2.2929661E0,3.251986E1,2.1679523E0,1.8618277E2,3.980308E1,8.650669E2,5.501008E2,4.7591705E2,2.934778E2,2.8709295E0],"tree_param":{"num_deleted":"0","num_feature":"165","num_nodes":"61","size_leaf_vector":"1"}},{"base_weights":[-3.2653182E-3,9.5336515E-1,-1.0217754E0,-1.4814153E0,1.2249542E0,-1.1859983E0,8.2125175E-1,-1.5095415E0,-1.0265463E-1,1.394483E0,-4.3043578E-1,-8.5490364E-1,-1.538493E0,1.2146204E0,-7.5908385E-2,-8.4752005E-1,-1.5241432E0,-6.464345E-2,6.239415E-2,1.4583977E0,9.3013704E-2,6.3544744E-1,-1.4154102E0,-1.0603297E0,1.425181E0,-7.713388E-2,-7.7271557E-1,-1.3212686E0,1.4951923E0,5.0543398E-2,-6.9719076E-2,-7.698243E-2,-7.5762165E-1,1.4716128E0,-1.4318458E0,-9.9964005E-1,8.007394E-1,9.7175205E-1,-7.9142705E-2,-1.4855704E0,9.2183864E-1,-1.5199234E0,-6.5756136E-1,-7.313259E-2,8.047121E-2,8.0575645E-2,-6.987437E-2,5.2260388E-2,-7.601331E-2,-5.9278723E-2,1.5283666E0,5.2415635E-2,-6.935568E-2,7.664553E-2,5.277736E-2,-9.222568E-2,5.3704202E-2,-9.39894E-2,-1.6645625E-2,5.1870745E-2,-8.382816E-2,5.889928E-2,-5.279932E-2,-7.604989E-2,4.1408606E-2,7.713872E-2,-4.6417072E-2,-7.808673E-2,-2.47979E-2,6.8189227E-3,-5.323444E-2,7.6860994E-2,2.3498626E-2],"categories":[],"categories_nodes":[],"categories_segments":[],"categories_sizes":[],"default_left":[0,0,0,0,0,0,0,0,0,0,0,0,0,0,0,0,0,0,0,0,0,0,0,0,0,0,0,0,0,0,0,0,0,0,0,0,0,0,0,0,0,0,0,0,0,0,0,0,0,0,0,0,0,0,0,0,0,0,0,0,0,0,0,0,0,0,0,0,0,0,0,0,0],"id":7,"left_children":[1,3,5,7,9,11,13,15,17,19,21,23,25,27,-1,29,31,-1,-1,33,35,37,39,41,43,-1,45,47,49,-1,-1,-1,51,53,55,57,59,61,-1,63,65,67,69,-1,-1,-1,-1,-1,-1,-1,71,-1,-1,-1,-1,-1,-1,-1,-1,-1,-1,-1,-1,-1,-1,-1,-1,-1,-1,-1,-1,-1,-1],"loss_changes":[8.4398955E3,2.95552E3,1.2707842E3,1.7245361E1,1.1284995E3,4.4831494E2,3.182616E2,2.958252E0,1.7757301E1,3.0314697E2,3.936791E2,9.3305945E2,4.783203E0,2.1179617E2,0E0,1.3341217E1,3.9314575E0,0E0,0E0,1.3484131E2,1.3360596E2,1.3610007E2,3.3305145E1,3.3683203E2,9.003961E1,0E0,2.0332699E1,1.5673527E1,2.5467163E1,0E0,0E0,0E0,1.3360174E1,8.662207E1,1.8862244E1,3.925145E1,6.317581E1,6.7002335E1,0E0,1.6789398E1,8.661667E0,3.568628E1,3.1510806E2,0E0,0E0,0E0,0E0,0E0,0E0,0E0,1.7435913E0,0E0,0E0,0E0,0E0,0E0,0E0,0E0,0E0,0E0,0E0,0E0,0E0,0E0,0E0,0E0,0E0,0E0,0E0,0E0,0E0,0E0,0E0],"parents":[2147483647,0,0,1,1,2,2,3,3,4,4,5,5,6,6,7,7,8,8,9,9,10,10,11,11,12,12,13,13,15,15,16,16,19,19,20,20,21,21,22,22,23,23,24,24,26,26,27,27,28,28,32,32,33,33,34,34,35,35,36,36,37,37,39,39,40,40,41,41,42,42,50,50],"right_children":[2,4,6,8,10,12,14,16,18,20,22,24,26,28,-1,30,32,-1,-1,34,36,38,40,42,44,-1,46,48,50,-1,-1,-1,52,54,56,58,60,62,-1,64,66,68,70,-1,-1,-1,-1,-1,-1,-1,72,-1,-1,-1,-1,-1,-1,-1,-1,-1,-1,-1,-1,-1,-1,-1,-1,-1,-1,-1,-1,-1,-1],"split_conditions":[-9.889757E-1,-5.8674645E-1,1.5611548E0,-1.2710605E-2,-1.960231E-1,-4.039635E-1,-3.00171E-1,-1.2812471E-1,-1.708343E-1,2.1423672E-1,-1.5355521E0,-4.0313834E-1,4.9758625E0,-1.533832E-1,-7.5908385E-2,-1.24548644E-1,-3.5235292E-1,-6.464345E-2,6.239415E-2,-5.4341596E-1,1.3343874E0,-1.4052635E-1,-8.7363905E-1,-1.1547854E-1,-3.739961E-1,-7.713388E-2,4.645042E0,-1.7106707E-1,-2.5941908E-1,5.0543398E-2,-6.9719076E-2,-7.698243E-2,-3.5210288E-1,-8.5102624E-1,9.8353803E-1,-1.0069503E0,1.4688343E-1,-4.8818227E-2,-7.9142705E-2,-3.573443E-1,-3.537986E-1,-2.1400858E-1,-3.573108E-1,-7.313259E-2,8.047121E-2,8.0575645E-2,-6.987437E-2,5.2260388E-2,-7.601331E-2,-5.9278723E-2,9.2109835E-1,5.2415635E-2,-6.935568E-2,7.664553E-2,5.277736E-2,-9.222568E-2,5.3704202E-2,-9.39894E-2,-1.6645625E-2,5.1870745E-2,-8.382816E-2,5.889928E-2,-5.279932E-2,-7.604989E-2,4.1408606E-2,7.713872E-2,-4.6417072E-2,-7.808673E-2,-2.47979E-2,6.8189227E-3,-5.323444E-2,7.6860994E-2,2.3498626E-2],"split_indices":[52,99,99,141,17,58,94,131,7,158,79,60,5,17,0,3,87,0,0,53,2,141,54,15,84,0,3,7,21,0,0,0,87,89,3,52,142,160,0,42,87,47,42,0,0,0,0,0,0,0,88,0,0,0,0,0,0,0,0,0,0,0,0,0,0,0,0,0,0,0,0,0,0],"split_type":[0,0,0,0,0,0,0,0,0,0,0,0,0,0,0,0,0,0,0,0,0,0,0,0,0,0,0,0,0,0,0,0,0,0,0,0,0,0,0,0,0,0,0,0,0,0,0,0,0,0,0,0,0,0,0,0,0,0,0,0,0,0,0,0,0,0,0,0,0,0,0,0,0],"sum_hessian":[8.660187E3,4.4657847E3,4.194402E3,4.4770255E2,4.018082E3,3.8515647E3,3.4283713E2,4.386592E2,9.043336E0,3.644959E3,3.7312308E2,1.9878357E3,1.8637289E3,2.9389932E2,4.8937782E1,1.0740534E1,4.2791867E2,4.8296857E0,4.21365E0,3.4742202E3,1.7073883E2,1.7937189E2,1.9375119E2,1.824033E3,1.6380276E2,1.852591E3,1.1137919E1,2.8908335E1,2.64991E2,2.2490714E0,8.491463E0,4.1844556E2,9.4731045E0,3.458896E3,1.5324156E1,6.695496E1,1.0378387E2,1.562462E2,2.3125694E1,1.8845837E2,5.2928042E0,8.506236E2,9.7340936E2,9.407691E0,1.5439507E2,1.984685E0,9.1532345E0,1.9125044E0,2.699583E1,2.8145297E0,2.6217648E2,2.2765715E0,7.1965337E0,3.0124026E3,4.4649353E2,1.3384056E1,1.9400994E0,2.8074438E1,3.8880527E1,9.5263824E1,8.520041E0,1.422024E2,1.4043796E1,1.8595375E2,2.504632E0,4.087241E0,1.2055631E0,8.167485E2,3.3875095E1,3.3018332E2,6.432261E2,2.5955295E2,2.6235352E0],"tree_param":{"num_deleted":"0","num_feature":"165","num_nodes":"73","size_leaf_vector":"1"}},{"base_weights":[-9.3796075E-4,9.560677E-1,-9.744827E-1,-1.4513047E0,1.2099361E0,-1.138001E0,8.186785E-1,-1.4812237E0,6.7290115E-1,1.3650972E0,-6.9816285E-1,-8.258679E-1,-7.512119E-2,1.1955981E0,-1.3644392E0,-7.485857E-2,-6.5562433E-1,6.6867344E-2,-4.7997598E-2,1.3954176E0,-9.969234E-1,2.0831475E-1,-7.5885534E-2,-9.9170876E-1,1.5092808E0,-7.217007E-2,1.3813301E0,5.423791E-2,-7.403765E-2,6.1376512E-2,-6.693425E-2,1.4985543E0,1.002134E0,-1.8147975E-2,-8.8629104E-2,-1.2622001E0,1.2133052E0,-1.410277E-1,-1.2363563E0,2.9364368E-2,7.603094E-2,1.4397049E0,-6.5694734E-2,-5.707404E-2,7.5006425E-2,6.676592E-2,1.1197613E-3,4.459222E-2,-8.8788964E-2,-7.9563566E-2,-4.2158104E-3,6.87426E-2,-7.358465E-2,-3.5140857E-2,6.955936E-2,-9.875399E-3,-6.630915E-2,7.433408E-2,-6.4780764E-2],"categories":[],"categories_nodes":[],"categories_segments":[],"categories_sizes":[],"default_left":[0,0,0,0,0,0,0,0,0,0,0,0,0,0,0,0,0,0,0,0,0,0,0,0,0,0,0,0,0,0,0,0,0,0,0,0,0,0,0,0,0,0,0,0,0,0,0,0,0,0,0,0,0,0,0,0,0,0,0],"id":8,"left_children":[1,3,5,7,9,11,13,15,17,19,21,23,-1,25,27,-1,29,-1,-1,31,33,35,-1,37,39,-1,41,-1,-1,-1,-1,43,45,47,-1,49,51,53,55,-1,-1,57,-1,-1,-1,-1,-1,-1,-1,-1,-1,-1,-1,-1,-1,-1,-1,-1,-1],"loss_changes":[7.9080425E3,2.617682E3,1.2346543E3,2.6975952E1,1.1474609E3,4.3741504E2,2.9144714E2,4.329773E0,8.1895895E0,2.5789893E2,2.1715607E2,8.0678357E2,0E0,1.4947037E2,1.6511772E1,0E0,1.376518E1,0E0,0E0,1.4195166E2,3.487319E1,2.0764806E2,0E0,4.040194E2,5.5252075E-1,0E0,4.6198242E1,0E0,0E0,0E0,0E0,1.3348145E1,2.408125E2,3.571124E1,0E0,2.200264E1,3.8180527E1,3.753472E2,1.4048022E2,0E0,0E0,3.7406128E1,0E0,0E0,0E0,0E0,0E0,0E0,0E0,0E0,0E0,0E0,0E0,0E0,0E0,0E0,0E0,0E0,0E0],"parents":[2147483647,0,0,1,1,2,2,3,3,4,4,5,5,6,6,7,7,8,8,9,9,10,10,11,11,13,13,14,14,16,16,19,19,20,20,21,21,23,23,24,24,26,26,31,31,32,32,33,33,35,35,36,36,37,37,38,38,41,41],"right_children":[2,4,6,8,10,12,14,16,18,20,22,24,-1,26,28,-1,30,-1,-1,32,34,36,-1,38,40,-1,42,-1,-1,-1,-1,44,46,48,-1,50,52,54,56,-1,-1,58,-1,-1,-1,-1,-1,-1,-1,-1,-1,-1,-1,-1,-1,-1,-1,-1,-1],"split_conditions":[-9.987536E-1,-5.8674645E-1,1.5611548E0,3.282506E-1,-3.2733577E-1,-4.0032983E-1,-3.00171E-1,-3.5235292E-1,-2.0399655E-1,-4.8367273E-2,-1.5324627E-1,5.0376415E-1,-7.512119E-2,-1.4632438E-1,-3.5741094E-1,-7.485857E-2,-1.2255988E0,6.6867344E-2,-4.7997598E-2,-8.5176224E-1,-1.1810495E0,-1.7915635E-1,-7.5885534E-2,-3.9926755E-1,-2.0430845E-1,-7.217007E-2,-1.5219313E-1,5.423791E-2,-7.403765E-2,6.1376512E-2,-6.693425E-2,-2.6521742E-1,-1.0613744E-1,3.8062908E-2,-8.8629104E-2,-1.6042247E-1,1.4679493E0,4.085964E-1,-2.362238E-1,2.9364368E-2,7.603094E-2,-3.9410584E-2,-6.5694734E-2,-5.707404E-2,7.5006425E-2,6.676592E-2,1.1197613E-3,4.459222E-2,-8.8788964E-2,-7.9563566E-2,-4.2158104E-3,6.87426E-2,-7.358465E-2,-3.5140857E-2,6.955936E-2,-9.875399E-3,-6.630915E-2,7.433408E-2,-6.4780764E-2],"split_indices":[52,99,99,1,22,58,94,87,0,161,1,45,0,1,42,0,138,0,0,89,151,1,0,46,0,0,108,0,0,0,0,1,162,159,0,141,99,1,126,0,0,52,0,0,0,0,0,0,0,0,0,0,0,0,0,0,0,0,0],"split_type":[0,0,0,0,0,0,0,0,0,0,0,0,0,0,0,0,0,0,0,0,0,0,0,0,0,0,0,0,0,0,0,0,0,0,0,0,0,0,0,0,0,0,0,0,0,0,0,0,0,0,0,0,0,0,0,0,0,0,0],"sum_hessian":[8.485867E3,4.279292E3,4.206575E3,4.077722E2,3.87152E3,3.8553696E3,3.5120554E2,4.0240704E2,5.3651333E0,3.5806377E3,2.9088235E2,2.078431E3,1.7769387E3,2.9988257E2,5.132298E1,3.9398328E2,8.423791E0,3.9420128E0,1.4231206E0,3.535661E3,4.4976772E1,1.3847028E2,1.5241206E2,1.9411472E3,1.3728383E2,1.9272667E1,2.806099E2,1.9493672E0,4.9373615E1,2.0300286E0,6.3937626E0,2.7988618E3,7.367992E2,2.0337286E1,2.4639486E1,5.6111412E1,8.235887E1,4.3391772E2,1.5072295E3,2.309101E0,1.3497473E2,2.7511707E2,5.4928246E0,1.2363174E0,2.7976255E3,5.495487E2,1.8725049E2,1.3724289E1,6.6129975E0,4.3584145E1,1.2527269E1,7.81451E1,4.213762E0,3.179003E2,1.1601743E2,1.2020887E2,1.3870206E3,2.7092075E2,4.196334E0],"tree_param":{"num_deleted":"0","num_feature":"165","num_nodes":"59","size_leaf_vector":"1"}},{"base_weights":[-6.998817E-4,9.3599087E-1,-9.4916385E-1,-1.4137532E0,1.1777681E0,-1.1099689E0,8.024027E-1,-1.4447291E0,4.3908057E-1,1.3129834E0,-7.9200035E-1,-8.0673444E-1,-7.3300056E-2,1.1639082E0,-1.3270612E0,-7.30444E-2,-6.906962E-1,-5.255245E-2,6.6562735E-2,1.3765994E0,6.2329106E-2,5.428582E-1,-1.1717762E0,-9.705412E-1,7.398779E-2,-1.0242646E0,1.3598362E0,5.2892625E-2,-7.212747E-2,5.9587624E-2,-6.5997325E-2,1.3903555E0,-7.227132E-2,-1.115853E0,6.312652E-1,1.2247963E0,-6.554283E-1,-1.2502851E0,5.373117E-2,-1.4446498E0,-5.590635E-1,5.1791966E-2,-7.212805E-2,1.4332243E0,-6.5263055E-2,-5.486792E-2,7.002466E-2,-8.196857E-2,5.2964713E-2,-8.502933E-2,4.2011015E-2,6.601907E-2,-4.264261E-2,6.205962E-2,-7.046469E-2,-6.673532E-2,4.542687E-2,-7.3553495E-2,1.5383983E-2,1.9046056E-4,-5.9240855E-2,7.2633885E-2,-4.7467604E-2],"categories":[],"categories_nodes":[],"categories_segments":[],"categories_sizes":[],"default_left":[0,0,0,0,0,0,0,0,0,0,0,0,0,0,0,0,0,0,0,0,0,0,0,0,0,0,0,0,0,0,0,0,0,0,0,0,0,0,0,0,0,0,0,0,0,0,0,0,0,0,0,0,0,0,0,0,0,0,0,0,0,0,0],"id":9,"left_children":[1,3,5,7,9,11,13,15,17,19,21,23,-1,25,27,-1,29,-1,-1,31,33,35,37,39,-1,41,43,-1,-1,-1,-1,45,-1,47,49,51,53,55,-1,57,59,-1,-1,61,-1,-1,-1,-1,-1,-1,-1,-1,-1,-1,-1,-1,-1,-1,-1,-1,-1,-1,-1],"loss_changes":[7.368004E3,2.3721794E3,1.1615591E3,2.3002808E1,1.0088428E3,4.0634082E2,2.6873535E2,3.6643677E0,1.0938726E1,2.8165625E2,1.2417038E2,7.657776E2,0E0,1.2882968E2,1.55284195E1,0E0,1.3352045E1,0E0,0E0,1.3282178E2,1.163027E2,4.5466057E1,3.4856995E1,3.7081213E2,0E0,2.3036251E1,5.5314453E1,0E0,0E0,0E0,0E0,8.612012E1,0E0,6.609757E1,5.8405666E1,8.112949E0,3.1024162E1,3.4759705E1,0E0,4.140027E1,3.59778E2,0E0,0E0,1.37265625E1,0E0,0E0,0E0,0E0,0E0,0E0,0E0,0E0,0E0,0E0,0E0,0E0,0E0,0E0,0E0,0E0,0E0,0E0,0E0],"parents":[2147483647,0,0,1,1,2,2,3,3,4,4,5,5,6,6,7,7,8,8,9,9,10,10,11,11,13,13,14,14,16,16,19,19,20,20,21,21,22,22,23,23,25,25,26,26,31,31,33,33,34,34,35,35,36,36,37,37,39,39,40,40,43,43],"right_children":[2,4,6,8,10,12,14,16,18,20,22,24,-1,26,28,-1,30,-1,-1,32,34,36,38,40,-1,42,44,-1,-1,-1,-1,46,-1,48,50,52,54,56,-1,58,60,-1,-1,62,-1,-1,-1,-1,-1,-1,-1,-1,-1,-1,-1,-1,-1,-1,-1,-1,-1,-1,-1],"split_conditions":[-9.987536E-1,-5.8674645E-1,1.5611548E0,-6.418171E-1,-3.2733253E-1,-4.0031987E-1,-3.00171E-1,-3.5235292E-1,-4.0045384E-2,2.1423672E-1,-1.0613744E-1,5.0376415E-1,-7.3300056E-2,-1.4138182E-1,-3.5741094E-1,-7.30444E-2,-1.2255988E0,-5.255245E-2,6.6562735E-2,-3.1875357E-2,-1.0070183E0,-1.5076919E0,-1.3618392E-1,-1.1547854E-1,7.398779E-2,-2.8122157E-1,-3.9111486E-1,5.2892625E-2,-7.212747E-2,5.9587624E-2,-6.5997325E-2,-1.4481099E0,-7.227132E-2,-3.696131E-2,-1.07041374E-1,-4.266712E-1,-4.1199256E-2,-1.4145613E-1,5.373117E-2,-2.6634587E-2,-3.2732868E-1,5.1791966E-2,-7.212805E-2,-2.2395314E-1,-6.5263055E-2,-5.486792E-2,7.002466E-2,-8.196857E-2,5.2964713E-2,-8.502933E-2,4.2011015E-2,6.601907E-2,-4.264261E-2,6.205962E-2,-7.046469E-2,-6.673532E-2,4.542687E-2,-7.3553495E-2,1.5383983E-2,1.9046056E-4,-5.9240855E-2,7.2633885E-2,-4.7467604E-2],"split_indices":[52,99,99,51,28,64,94,87,111,158,162,45,0,75,42,0,138,0,0,4,52,80,123,15,0,124,59,0,0,0,0,31,0,70,63,76,4,75,0,72,22,0,0,106,0,0,0,0,0,0,0,0,0,0,0,0,0,0,0,0,0,0,0],"split_type":[0,0,0,0,0,0,0,0,0,0,0,0,0,0,0,0,0,0,0,0,0,0,0,0,0,0,0,0,0,0,0,0,0,0,0,0,0,0,0,0,0,0,0,0,0,0,0,0,0,0,0,0,0,0,0,0,0,0,0,0,0,0,0],"sum_hessian":[8.291402E3,4.1715986E3,4.1198037E3,3.8873914E2,3.7828596E3,3.7737185E3,3.4608524E2,3.8256363E2,6.175506E0,3.5401768E3,2.4268282E2,2.0397334E3,1.7339852E3,2.9624673E2,4.9838505E1,3.7361963E2,8.944011E0,2.246041E0,3.9294653E0,3.368722E3,1.7145491E2,5.3656906E1,1.8902591E2,1.9039106E3,1.3582277E2,2.3998426E1,2.7224832E2,1.9250479E0,4.7913456E1,2.0167704E0,6.9272404E0,3.3528855E3,1.583638E1,5.551998E1,1.1593492E2,3.4181995E1,1.9474909E1,1.8307123E2,5.954694E0,8.8346387E2,1.0204467E3,3.801207E0,2.019722E1,2.6540222E2,6.8460956E0,1.3172589E1,3.339713E3,4.4948105E1,1.05718775E1,8.947376E0,1.0698754E2,3.3027027E1,1.15497E0,5.3552947E0,1.4119614E1,1.7654898E2,6.5222435E0,8.7049976E2,1.2964097E1,5.377385E2,4.8270825E2,2.6363992E2,1.7622774E0],"tree_param":{"num_deleted":"0","num_feature":"165","num_nodes":"63","size_leaf_vector":"1"}},{"base_weights":[3.9299172E-3,8.423487E-1,-9.7778064E-1,1.3792275E0,-1.5133867E-1,-1.1685882E0,8.210709E-1,-9.163361E-1,1.4131263E0,8.594734E-1,-8.633112E-1,-1.2995608E0,-4.6424928E-1,1.1799977E0,-7.067969E-2,2.1221599E-1,-8.316836E-2,1.4217929E0,-7.225441E-2,-1.2623917E0,1.0998188E0,-9.743588E-1,1.0035285E0,-7.4338835E-1,-1.3587223E0,1.1114385E0,-9.469867E-1,-6.821532E-2,1.3310121E0,1.2782377E0,-7.476008E-2,1.4254739E0,-6.358387E-2,5.292304E-1,-1.4450297E0,-1.2228689E0,1.1724309E0,-1.2668735E0,-3.3293647E-1,-7.275965E-2,1.4430658E0,-1.016399E0,5.197746E-1,2.7704537E-1,-1.3711542E0,1.3575649E0,-6.5859675E-2,-4.5134112E-2,-1.1723202E0,1.3952132E0,-6.4015895E-2,7.174E-2,2.7388012E-2,7.154334E-2,3.911573E-3,6.775645E-2,-5.6754854E-2,-7.768776E-2,4.7519818E-2,4.876267E-2,-7.681187E-2,6.116284E-2,-6.6530325E-2,-6.826376E-2,-3.292342E-2,-5.2602973E-2,4.58462E-3,7.691669E-2,-5.2530717E-2,6.6135295E-2,-5.679807E-2,7.423147E-2,-7.519856E-2,-6.7648366E-2,7.341807E-2,-7.135493E-2,-6.1971504E-2,7.125871E-2,-5.7089366E-2,-4.9825486E-2,4.775722E-2,-3.5795536E-2,-7.15099E-2,7.1325295E-2,-5.886161E-2],"categories":[],"categories_nodes":[],"categories_segments":[],"categories_sizes":[],"default_left":[0,0,0,0,0,0,0,0,0,0,0,0,0,0,0,0,0,0,0,0,0,0,0,0,0,0,0,0,0,0,0,0,0,0,0,0,0,0,0,0,0,0,0,0,0,0,0,0,0,0,0,0,0,0,0,0,0,0,0,0,0,0,0,0,0,0,0,0,0,0,0,0,0,0,0,0,0,0,0,0,0,0,0,0,0],"id":10,"left_children":[1,3,5,7,9,11,13,15,17,19,21,23,25,27,-1,29,-1,31,-1,33,35,37,39,41,43,45,47,-1,49,51,-1,53,-1,55,57,59,61,63,65,-1,67,69,71,73,75,77,-1,79,81,83,-1,-1,-1,-1,-1,-1,-1,-1,-1,-1,-1,-1,-1,-1,-1,-1,-1,-1,-1,-1,-1,-1,-1,-1,-1,-1,-1,-1,-1,-1,-1,-1,-1,-1,-1],"loss_changes":[6.667332E3,2.3310605E3,1.2816887E3,2.2203223E2,1.1043164E3,3.1063916E2,2.891521E2,3.5665318E1,7.130664E1,3.2483102E2,1.8760052E2,9.258008E1,4.0462796E2,1.20682465E2,0E0,3.3890484E1,0E0,2.9453125E1,0E0,2.2032478E1,9.760596E1,1.5909442E2,5.725348E1,9.559859E1,5.263623E1,7.644026E1,8.259219E1,0E0,5.0830505E1,5.127506E-1,0E0,2.0118652E1,0E0,1.0809156E1,1.690818E1,1.3742485E1,7.20376E1,3.4036743E1,8.182286E1,0E0,1.20210495E1,6.499423E1,9.919196E1,4.123999E1,1.7026367E1,2.0872116E1,0E0,7.9309105E1,3.726837E1,2.470166E1,0E0,0E0,0E0,0E0,0E0,0E0,0E0,0E0,0E0,0E0,0E0,0E0,0E0,0E0,0E0,0E0,0E0,0E0,0E0,0E0,0E0,0E0,0E0,0E0,0E0,0E0,0E0,0E0,0E0,0E0,0E0,0E0,0E0,0E0,0E0],"parents":[2147483647,0,0,1,1,2,2,3,3,4,4,5,5,6,6,7,7,8,8,9,9,10,10,11,11,12,12,13,13,15,15,17,17,19,19,20,20,21,21,22,22,23,23,24,24,25,25,26,26,28,28,29,29,31,31,33,33,34,34,35,35,36,36,37,37,38,38,40,40,41,41,42,42,43,43,44,44,45,45,47,47,48,48,49,49],"right_children":[2,4,6,8,10,12,14,16,18,20,22,24,26,28,-1,30,-1,32,-1,34,36,38,40,42,44,46,48,-1,50,52,-1,54,-1,56,58,60,62,64,66,-1,68,70,72,74,76,78,-1,80,82,84,-1,-1,-1,-1,-1,-1,-1,-1,-1,-1,-1,-1,-1,-1,-1,-1,-1,-1,-1,-1,-1,-1,-1,-1,-1,-1,-1,-1,-1,-1,-1,-1,-1,-1,-1],"split_conditions":[-3.7718505E-1,-8.51741E-1,1.7783779E0,-2.0096247E-1,-1.0613744E-1,1.2414528E0,-3.00171E-1,-3.1609207E-1,-4.8367273E-2,-2.292858E-1,4.085964E-1,-3.573108E-1,1.1130987E0,-1.4632438E-1,-7.067969E-2,-3.9937675E-1,-8.316836E-2,-4.6408278E-1,-7.225441E-2,-2.0496552E0,-1.1650666E-1,1.2350888E0,-8.7741977E-1,4.085964E-1,-1.8782978E-1,-4.039635E-1,-6.46649E-1,-6.821532E-2,-2.2395314E-1,-4.1199256E-2,-7.476008E-2,1.9639306E-1,-6.358387E-2,-2.6521742E-1,-1.4030807E-1,-8.8086927E-1,-3.1875357E-2,1.6787491E0,-1.9879484E-1,-7.275965E-2,-4.2201835E-1,-8.807693E-1,-5.931238E-2,-3.4289467E-1,-1.5885958E-1,-2.1746923E-1,-6.5859675E-2,-5.160696E-1,-3.0673E-1,4.6578348E-1,-6.4015895E-2,7.174E-2,2.7388012E-2,7.154334E-2,3.911573E-3,6.775645E-2,-5.6754854E-2,-7.768776E-2,4.7519818E-2,4.876267E-2,-7.681187E-2,6.116284E-2,-6.6530325E-2,-6.826376E-2,-3.292342E-2,-5.2602973E-2,4.58462E-3,7.691669E-2,-5.2530717E-2,6.6135295E-2,-5.679807E-2,7.423147E-2,-7.519856E-2,-6.7648366E-2,7.341807E-2,-7.135493E-2,-6.1971504E-2,7.125871E-2,-5.7089366E-2,-4.9825486E-2,4.775722E-2,-3.5795536E-2,-7.15099E-2,7.1325295E-2,-5.886161E-2],"split_indices":[40,89,102,1,162,100,94,94,161,1,1,42,135,1,0,46,0,82,0,73,15,19,54,1,93,58,51,0,106,4,0,157,0,1,123,54,4,151,1,0,136,54,161,42,141,29,0,54,94,51,0,0,0,0,0,0,0,0,0,0,0,0,0,0,0,0,0,0,0,0,0,0,0,0,0,0,0,0,0,0,0,0,0,0,0],"split_type":[0,0,0,0,0,0,0,0,0,0,0,0,0,0,0,0,0,0,0,0,0,0,0,0,0,0,0,0,0,0,0,0,0,0,0,0,0,0,0,0,0,0,0,0,0,0,0,0,0,0,0,0,0,0,0,0,0,0,0,0,0,0,0,0,0,0,0,0,0,0,0,0,0,0,0,0,0,0,0,0,0,0,0,0,0],"sum_hessian":[8.0984204E3,4.3680654E3,3.7303547E3,2.835621E3,1.5324443E3,3.3729321E3,3.5742276E2,4.088572E1,2.7947354E3,6.332253E2,8.9921906E2,2.8433608E3,5.2957117E2,3.083657E2,4.9057045E1,1.656963E1,2.431609E1,2.786788E3,7.947313E0,6.399546E1,5.692298E2,8.49184E2,5.0035034E1,2.7468033E2,2.5686807E3,1.2388844E2,4.056827E2,1.6827099E1,2.915386E2,1.0355538E1,6.214092E0,2.7834548E3,3.3332646E0,5.744641E0,5.8250816E1,1.6775648E1,5.5245416E2,5.825448E2,2.666392E2,7.237658E0,4.279738E1,2.2602444E2,4.8655888E1,1.9214302E1,2.5494663E3,1.1288889E2,1.099955E1,8.133917E1,3.2434354E2,2.8499747E2,6.541122E0,7.733774E0,2.6217647E0,2.7722954E3,1.115943E1,3.9635606E0,1.7810801E0,5.605779E1,2.1930275E0,1.829621E0,1.4946028E1,5.419606E2,1.0493589E1,5.0037192E2,8.217288E1,9.8443794E1,1.681954E2,4.159153E1,1.2058471E0,1.0501983E1,2.1552246E2,3.3127968E1,1.5527918E1,8.05601E0,1.1158291E1,1.782562E3,7.669043E2,1.1033406E2,2.5548308E0,4.1690582E1,3.964859E1,1.184604E2,2.0588313E2,2.820124E2,2.9850812E0],"tree_param":{"num_deleted":"0","num_feature":"165","num_nodes":"85","size_leaf_vector":"1"}},{"base_weights":[-6.182853E-3,8.561884E-1,-9.130482E-1,-1.3465284E0,1.0964427E0,-1.0667344E0,7.70087E-1,-1.3890343E0,7.937946E-1,1.2319211E0,-6.701916E-1,-1.294708E0,-6.1088616E-1,1.14362E0,-6.903579E-2,-7.022292E-2,-8.179986E-1,6.8081684E-2,-4.8629742E-2,1.4044342E0,7.5214654E-1,6.567417E-1,-1.1156799E0,-1.3087263E0,2.7288767E-2,3.4796897E-1,-1.1756907E0,-1.1614175E0,1.3605549E0,5.0702807E-2,-6.550484E-2,1.4061884E0,-6.0058475E-2,1.1703522E0,-2.3270601E-1,1.113314E0,-6.7640096E-2,8.102336E-1,-1.2267265E0,-9.009514E-1,-1.3436209E0,1.3792491E0,-6.748363E-2,8.2969093E-1,-1.3518381E0,6.534583E-1,-1.2412335E0,4.9344372E-2,-6.91788E-2,-5.41041E-2,6.953949E-2,8.885352E-3,7.036531E-2,6.2837824E-2,-3.1296567E-3,1.4234865E-4,-8.0112524E-2,-6.445594E-2,6.581681E-2,-5.60601E-2,6.030519E-2,-3.2487087E-2,-7.165756E-2,-6.1952867E-2,-8.61798E-3,-5.2577224E-2,-6.830015E-2,-5.2513428E-2,1.0002337E-1,5.752026E-2,-5.7676125E-2,6.318174E-2,-7.159017E-2,8.2493514E-2,-6.805967E-2,-3.409531E-2,-6.779181E-2],"categories":[],"categories_nodes":[],"categories_segments":[],"categories_sizes":[],"default_left":[0,0,0,0,0,0,0,0,0,0,0,0,0,0,0,0,0,0,0,0,0,0,0,0,0,0,0,0,0,0,0,0,0,0,0,0,0,0,0,0,0,0,0,0,0,0,0,0,0,0,0,0,0,0,0,0,0,0,0,0,0,0,0,0,0,0,0,0,0,0,0,0,0,0,0,0,0],"id":11,"left_children":[1,3,5,7,9,11,13,15,17,19,21,23,25,27,-1,-1,29,-1,-1,31,33,35,37,39,41,43,45,47,49,-1,-1,51,-1,53,55,57,-1,59,61,63,65,67,-1,69,71,73,75,-1,-1,-1,-1,-1,-1,-1,-1,-1,-1,-1,-1,-1,-1,-1,-1,-1,-1,-1,-1,-1,-1,-1,-1,-1,-1,-1,-1,-1,-1],"loss_changes":[6.1487124E3,2.1341975E3,9.921299E2,3.7200012E1,8.706416E2,3.6418457E2,2.596495E2,2.281067E0,9.712374E0,2.7834326E2,1.5412904E2,4.340674E1,6.3552563E2,1.3871152E2,0E0,0E0,1.272106E1,0E0,0E0,1.3032227E1,3.6887335E2,6.19256E1,4.2621613E1,3.1740479E1,4.939815E1,3.5771948E2,8.931763E1,1.2881329E1,2.005008E1,0E0,0E0,3.1567383E0,0E0,6.701837E1,8.6328285E1,2.8137184E1,0E0,9.92602E0,2.1035126E1,4.550267E1,1.249585E1,2.2293797E1,0E0,2.1754973E2,2.200148E1,5.482661E1,4.478247E1,0E0,0E0,0E0,0E0,0E0,0E0,0E0,0E0,0E0,0E0,0E0,0E0,0E0,0E0,0E0,0E0,0E0,0E0,0E0,0E0,0E0,0E0,0E0,0E0,0E0,0E0,0E0,0E0,0E0,0E0],"parents":[2147483647,0,0,1,1,2,2,3,3,4,4,5,5,6,6,7,7,8,8,9,9,10,10,11,11,12,12,13,13,16,16,19,19,20,20,21,21,22,22,23,23,24,24,25,25,26,26,27,27,28,28,31,31,33,33,34,34,35,35,37,37,38,38,39,39,40,40,41,41,43,43,44,44,45,45,46,46],"right_children":[2,4,6,8,10,12,14,16,18,20,22,24,26,28,-1,-1,30,-1,-1,32,34,36,38,40,42,44,46,48,50,-1,-1,52,-1,54,56,58,-1,60,62,64,66,68,-1,70,72,74,76,-1,-1,-1,-1,-1,-1,-1,-1,-1,-1,-1,-1,-1,-1,-1,-1,-1,-1,-1,-1,-1,-1,-1,-1,-1,-1,-1,-1,-1,-1],"split_conditions":[-9.889757E-1,-5.8674645E-1,1.5611548E0,4.085964E-1,-1.4980896E-1,-5.9649184E-2,-3.00171E-1,-3.5235292E-1,-1.24548644E-1,-4.1199256E-2,-1.0613744E-1,1.5586534E0,-2.7398667E-1,-1.6506973E-1,-6.903579E-2,-7.022292E-2,-3.5210288E-1,6.8081684E-2,-4.8629742E-2,-2.056938E-1,-1.0613744E-1,-1.5324627E-1,-1.2795712E-1,-3.6319607E-1,-1.2807141E-1,-3.9410584E-2,-1.8782978E-1,-1.7106707E-1,-1.4138182E-1,5.0702807E-2,-6.550484E-2,-4.4658828E-1,-6.0058475E-2,-1.0050206E0,-2.057322E-1,-2.0769648E-1,-6.7640096E-2,-5.0762385E-1,-2.493217E-1,7.1804804E-1,-9.098462E-1,-1.1537951E-1,-6.748363E-2,-4.8818227E-2,-9.101411E-1,-3.2733706E-1,-1.5578994E0,4.9344372E-2,-6.91788E-2,-5.41041E-2,6.953949E-2,8.885352E-3,7.036531E-2,6.2837824E-2,-3.1296567E-3,1.4234865E-4,-8.0112524E-2,-6.445594E-2,6.581681E-2,-5.60601E-2,6.030519E-2,-3.2487087E-2,-7.165756E-2,-6.1952867E-2,-8.61798E-3,-5.2577224E-2,-6.830015E-2,-5.2513428E-2,1.0002337E-1,5.752026E-2,-5.7676125E-2,6.318174E-2,-7.159017E-2,8.2493514E-2,-6.805967E-2,-3.409531E-2,-6.779181E-2],"split_indices":[52,99,99,1,0,1,94,87,3,4,162,99,47,0,0,0,87,0,0,126,162,1,131,48,131,52,93,7,75,0,0,55,0,52,154,1,0,154,106,150,90,15,0,160,90,22,85,0,0,0,0,0,0,0,0,0,0,0,0,0,0,0,0,0,0,0,0,0,0,0,0,0,0,0,0,0,0],"split_type":[0,0,0,0,0,0,0,0,0,0,0,0,0,0,0,0,0,0,0,0,0,0,0,0,0,0,0,0,0,0,0,0,0,0,0,0,0,0,0,0,0,0,0,0,0,0,0,0,0,0,0,0,0,0,0,0,0,0,0,0,0,0,0,0,0,0,0,0,0,0,0,0,0,0,0,0,0],"sum_hessian":[7.8602534E3,4.0289932E3,3.8312605E3,3.9577893E2,3.6332144E3,3.511036E3,3.202246E2,3.884162E2,7.3627605E0,3.3747188E3,2.5849542E2,2.3392944E3,1.1717415E3,2.7323904E2,4.6985542E1,3.7677957E2,1.1636615E1,5.7450495E0,1.617711E0,2.4807761E3,8.9394275E2,6.485218E1,1.9364323E2,2.314759E3,2.4535395E1,4.3449448E2,7.37247E2,2.3128971E1,2.5011009E2,2.2392669E0,9.397347E0,2.4795671E3,1.20899E0,6.2735547E2,2.6658725E2,5.3208984E1,1.1643202E1,1.0213389E1,1.8342984E2,1.8458105E2,2.130178E3,1.237925E1,1.2156145E1,3.389489E2,9.554556E1,2.5193193E1,7.1205383E2,1.8450266E0,2.1283943E1,2.6326346E0,2.4747745E2,2.3995497E0,2.4771675E3,5.8625195E2,4.1103527E1,2.2831624E2,3.8271027E1,3.7292924E0,4.947969E1,1.4256161E0,8.787773E0,4.942574E1,1.340041E2,1.2559676E2,5.8984295E1,1.5503386E2,1.975144E3,2.380135E0,9.999114E0,2.921276E2,4.6821312E1,2.3953993E0,9.315016E1,1.6977486E1,8.215708E0,1.2226778E2,5.897861E2],"tree_param":{"num_deleted":"0","num_feature":"165","num_nodes":"77","size_leaf_vector":"1"}},{"base_weights":[6.5475213E-3,8.4894115E-1,-8.890394E-1,-1.324608E0,1.0814538E0,-1.1521137E0,-5.0866116E-2,-1.3665775E0,7.2059107E-1,1.1714797E0,-7.001846E-2,-1.3062294E-1,-1.2551857E0,-9.4064873E-1,8.2523185E-1,-6.894997E-2,4.429088E-2,6.6226296E-2,-4.877568E-2,1.3608513E0,6.1120003E-1,-8.321389E-1,1.3955089E0,1.2305967E0,-1.2655884E0,-4.434464E-2,-1.2411987E0,6.912595E-2,-6.8480276E-2,1.0334048E-1,1.3764741E0,1.120568E0,-2.6709574E-1,-1.2517135E0,-1.8020312E-1,1.5192188E0,-7.608582E-2,-5.0578274E-2,9.365987E-2,-7.6451993E-1,-1.3023318E0,-8.678185E-1,8.152661E-1,3.026152E-1,-1.2974688E0,-6.7476556E-2,6.145046E-2,-7.4291505E-2,6.897291E-2,-6.622798E-2,5.896188E-2,6.180466E-3,-5.262236E-2,-6.553092E-2,2.7139066E-2,-6.317308E-2,3.223719E-2,3.0632988E-2,7.6915234E-2,1.0228622E-2,-5.8208823E-2,-6.554591E-2,-2.2493817E-2,-6.764885E-2,1.961965E-2,6.635784E-2,-6.928071E-2,-6.2316474E-2,7.105213E-2,-3.1128878E-2,-6.68674E-2],"categories":[],"categories_nodes":[],"categories_segments":[],"categories_sizes":[],"default_left":[0,0,0,0,0,0,0,0,0,0,0,0,0,0,0,0,0,0,0,0,0,0,0,0,0,0,0,0,0,0,0,0,0,0,0,0,0,0,0,0,0,0,0,0,0,0,0,0,0,0,0,0,0,0,0,0,0,0,0,0,0,0,0,0,0,0,0,0,0,0,0],"id":12,"left_children":[1,3,5,7,9,11,13,15,17,19,-1,21,23,25,27,-1,-1,-1,-1,29,31,33,35,37,39,41,43,-1,-1,45,47,49,51,53,55,57,-1,-1,-1,59,61,63,65,67,69,-1,-1,-1,-1,-1,-1,-1,-1,-1,-1,-1,-1,-1,-1,-1,-1,-1,-1,-1,-1,-1,-1,-1,-1,-1,-1],"loss_changes":[5.852056E3,2.0214915E3,8.28968E2,3.4179016E1,8.0853174E2,3.0111816E2,7.01734E2,1.1833557E1,9.928257E0,3.689878E2,0E0,2.831484E2,6.876782E1,1.2024713E2,5.567357E2,0E0,0E0,0E0,0E0,5.1020996E1,3.9502234E2,4.9304E1,3.2380646E1,1.823183E1,4.6666992E1,8.082474E1,2.94422E1,0E0,0E0,5.5691097E1,2.4018066E1,8.170056E1,9.975368E1,1.23389435E1,6.521941E1,4.4917297E-1,0E0,0E0,0E0,6.967746E1,1.7053955E1,3.6169563E1,6.480652E1,2.354845E1,7.85614E0,0E0,0E0,0E0,0E0,0E0,0E0,0E0,0E0,0E0,0E0,0E0,0E0,0E0,0E0,0E0,0E0,0E0,0E0,0E0,0E0,0E0,0E0,0E0,0E0,0E0,0E0],"parents":[2147483647,0,0,1,1,2,2,3,3,4,4,5,5,6,6,7,7,8,8,9,9,11,11,12,12,13,13,14,14,19,19,20,20,21,21,22,22,23,23,24,24,25,25,26,26,29,29,30,30,31,31,32,32,33,33,34,34,35,35,39,39,40,40,41,41,42,42,43,43,44,44],"right_children":[2,4,6,8,10,12,14,16,18,20,-1,22,24,26,28,-1,-1,-1,-1,30,32,34,36,38,40,42,44,-1,-1,46,48,50,52,54,56,58,-1,-1,-1,60,62,64,66,68,70,-1,-1,-1,-1,-1,-1,-1,-1,-1,-1,-1,-1,-1,-1,-1,-1,-1,-1,-1,-1,-1,-1,-1,-1,-1,-1],"split_conditions":[-9.889757E-1,-7.219315E-1,1.0169362E0,4.085964E-1,-3.1875357E-2,-3.9930168E-1,5.1438713E-1,-2.950047E-2,-1.24548644E-1,-8.5176224E-1,-7.001846E-2,4.085964E-1,-4.801397E-1,-6.4656365E-1,-2.5285637E-1,-6.894997E-2,4.429088E-2,6.6226296E-2,-4.877568E-2,-4.2695826E-1,-1.0613744E-1,-1.9444075E-1,-5.4665864E-1,4.085964E-1,-2.362238E-1,-5.312192E-1,-9.6773213E-1,6.912595E-2,-6.8480276E-2,-7.0190616E-2,-1.7104383E-1,-2.371759E-1,-1.3330431E-1,2.038433E0,-1.7087452E-1,-1.7106248E-1,-7.608582E-2,-5.0578274E-2,9.365987E-2,-2.648374E-1,6.0117316E0,-6.4667946E-1,3.6403647E-1,-1.4632438E-1,-2.363268E-1,-6.7476556E-2,6.145046E-2,-7.4291505E-2,6.897291E-2,-6.622798E-2,5.896188E-2,6.180466E-3,-5.262236E-2,-6.553092E-2,2.7139066E-2,-6.317308E-2,3.223719E-2,3.0632988E-2,7.6915234E-2,1.0228622E-2,-5.8208823E-2,-6.554591E-2,-2.2493817E-2,-6.764885E-2,1.961965E-2,6.635784E-2,-6.928071E-2,-6.2316474E-2,7.105213E-2,-3.1128878E-2,-6.68674E-2],"split_indices":[52,135,135,1,4,46,45,69,3,89,0,1,84,51,21,0,0,0,0,76,162,107,136,1,126,54,52,0,0,141,7,1,1,150,7,7,0,0,0,21,153,51,12,1,126,0,0,0,0,0,0,0,0,0,0,0,0,0,0,0,0,0,0,0,0,0,0,0,0,0,0],"split_type":[0,0,0,0,0,0,0,0,0,0,0,0,0,0,0,0,0,0,0,0,0,0,0,0,0,0,0,0,0,0,0,0,0,0,0,0,0,0,0,0,0,0,0,0,0,0,0,0,0,0,0,0,0,0,0,0,0,0,0,0,0,0,0,0,0,0,0,0,0,0,0],"sum_hessian":[7.7548545E3,3.996128E3,3.7587263E3,3.8571667E2,3.6104114E3,2.8605286E3,8.981978E2,3.7828568E2,7.430982E0,3.4845408E3,1.2587058E2,2.6239023E2,2.5981384E3,4.455821E2,4.5261575E2,3.7659653E2,1.689151E0,5.641339E0,1.789643E0,2.603233E3,8.813078E2,1.800716E2,8.231864E1,1.0338697E1,2.5877996E3,1.1218122E2,3.3340085E2,3.612592E2,9.135655E1,3.2038277E1,2.5711946E3,5.576327E2,3.2367514E2,1.0900065E2,7.1070946E1,7.942952E1,2.8891182E0,2.1751149E0,8.163583E0,1.7828882E2,2.4095107E3,5.729003E1,5.4891186E1,1.1570763E1,3.218301E2,1.3899579E1,1.81387E1,2.1600988E0,2.5690347E3,1.2561008E1,5.4507166E2,2.1670769E2,1.0696746E2,1.0579746E2,3.20319E0,3.0495275E1,4.057567E1,2.320252E0,7.710927E1,5.220051E1,1.2608832E2,2.3849504E3,2.4560402E1,4.131204E1,1.5977995E1,4.485548E1,1.0035706E1,4.803663E0,6.7671E0,1.8882719E1,3.029474E2],"tree_param":{"num_deleted":"0","num_feature":"165","num_nodes":"71","size_leaf_vector":"1"}},{"base_weights":[1.4130327E-2,8.39977E-1,-8.459788E-1,-1.2881339E0,1.0662283E0,-1.0040283E0,7.7741116E-1,-1.3237281E0,5.194301E-2,1.1533203E0,-6.863655E-2,-6.9584894E-1,-1.3508282E0,1.1076794E0,-1.2224994E0,-1.337219E0,-5.133927E-1,1.3352574E0,6.3032603E-1,-8.539448E-1,1.2815987E0,-6.777283E-2,-6.649793E-1,1.23487E0,-6.448467E-2,4.6915915E-2,-6.638601E-2,-6.765852E-2,-6.499396E-1,4.2938948E-2,-5.914085E-2,1.3410267E0,-6.632039E-2,1.0488237E0,-1.3448378E-1,-1.3157383E0,-4.7228372E-1,-6.4282574E-2,1.4643886E0,8.051821E-2,-6.2077053E-2,1.302862E0,-6.062922E-2,5.248586E-2,-6.316256E-2,6.722434E-2,-7.528222E-2,5.4939445E-2,-8.314597E-2,1.2409982E-2,-5.2063864E-2,-6.853975E-2,-5.3856764E-3,1.8163676E-3,-5.2299805E-2,1.1061869E-1,6.903851E-2,-5.3222235E-2,6.655034E-2],"categories":[],"categories_nodes":[],"categories_segments":[],"categories_sizes":[],"default_left":[0,0,0,0,0,0,0,0,0,0,0,0,0,0,0,0,0,0,0,0,0,0,0,0,0,0,0,0,0,0,0,0,0,0,0,0,0,0,0,0,0,0,0,0,0,0,0,0,0,0,0,0,0,0,0,0,0,0,0],"id":13,"left_children":[1,3,5,7,9,11,13,15,-1,17,-1,19,21,23,25,27,29,31,33,35,37,-1,39,41,-1,-1,-1,-1,43,-1,-1,45,-1,47,49,51,53,-1,55,-1,-1,57,-1,-1,-1,-1,-1,-1,-1,-1,-1,-1,-1,-1,-1,-1,-1,-1,-1],"loss_changes":[5.375872E3,1.8604087E3,9.5196826E2,3.214496E1,7.4302075E2,3.601704E2,2.1897136E2,3.3182983E0,0E0,3.1989014E2,0E0,5.6102637E2,4.14209E0,8.797644E1,1.19711685E1,3.064087E0,8.0173E0,4.0166504E1,2.791957E2,2.917865E2,6.429208E1,0E0,1.8545238E1,4.6432556E1,0E0,0E0,0E0,0E0,1.1837401E1,0E0,0E0,2.6598145E1,0E0,7.819336E1,1.0756665E2,4.9745605E1,2.6554428E2,0E0,4.739685E0,0E0,0E0,1.8921844E1,0E0,0E0,0E0,0E0,0E0,0E0,0E0,0E0,0E0,0E0,0E0,0E0,0E0,0E0,0E0,0E0,0E0],"parents":[2147483647,0,0,1,1,2,2,3,3,4,4,5,5,6,6,7,7,9,9,11,11,12,12,13,13,14,14,15,15,16,16,17,17,18,18,19,19,20,20,22,22,23,23,28,28,31,31,33,33,34,34,35,35,36,36,38,38,41,41],"right_children":[2,4,6,8,10,12,14,16,-1,18,-1,20,22,24,26,28,30,32,34,36,38,-1,40,42,-1,-1,-1,-1,44,-1,-1,46,-1,48,50,52,54,-1,56,-1,-1,58,-1,-1,-1,-1,-1,-1,-1,-1,-1,-1,-1,-1,-1,-1,-1,-1,-1],"split_conditions":[-9.933302E-1,-4.9608853E-1,1.5611548E0,-3.0143755E-2,-3.1875357E-2,-4.039635E-1,-3.00171E-1,-1.2710605E-2,5.194301E-2,-8.5176224E-1,-6.863655E-2,-4.0313834E-1,4.596864E0,-2.2395314E-1,-3.5741094E-1,-3.5235292E-1,-3.5380098E-1,-4.8367273E-2,3.8062908E-2,-1.1547854E-1,-3.739961E-1,-6.777283E-2,-4.020847E-1,-4.039635E-1,-6.448467E-2,4.6915915E-2,-6.638601E-2,-6.765852E-2,-1.2255988E0,4.2938948E-2,-5.914085E-2,-1.1426722E-1,-6.632039E-2,-9.987536E-1,-1.5017259E-1,-2.1400858E-1,-3.2732868E-1,-6.4282574E-2,-2.6482978E-1,8.051821E-2,-6.2077053E-2,-1.0704138E-1,-6.062922E-2,5.248586E-2,-6.316256E-2,6.722434E-2,-7.528222E-2,5.4939445E-2,-8.314597E-2,1.2409982E-2,-5.2063864E-2,-6.853975E-2,-5.3856764E-3,1.8163676E-3,-5.2299805E-2,1.1061869E-1,6.903851E-2,-5.3222235E-2,6.655034E-2],"split_indices":[52,99,99,75,4,58,94,141,0,89,0,60,3,106,42,87,87,161,159,15,84,0,58,58,0,0,0,0,138,0,0,9,0,52,141,47,22,0,21,0,0,63,0,0,0,0,0,0,0,0,0,0,0,0,0,0,0,0,0],"split_type":[0,0,0,0,0,0,0,0,0,0,0,0,0,0,0,0,0,0,0,0,0,0,0,0,0,0,0,0,0,0,0,0,0,0,0,0,0,0,0,0,0,0,0,0,0,0,0,0,0,0,0,0,0,0,0,0,0,0,0],"sum_hessian":[7.566258E3,3.8600225E3,3.706235E3,3.704923E2,3.4895303E3,3.3777651E3,3.2846997E2,3.653352E2,5.1571045E0,3.3697288E3,1.1980146E2,1.7900583E3,1.5877069E3,2.8229715E2,4.617284E1,3.5871298E2,6.6222367E0,2.4988767E3,8.7085205E2,1.6580651E3,1.3199324E2,1.5760945E3,1.1612401E1,2.6853516E2,1.3761995E1,1.7763331E0,4.4396507E1,3.4962936E2,9.083607E0,2.0786343E0,4.543602E0,2.493967E3,4.9096036E0,5.6261975E2,3.0823233E2,7.4916284E2,9.089023E2,8.372302E0,1.2362094E2,1.9851516E0,9.62725E0,2.6173172E2,6.803435E0,2.2199507E0,6.863656E0,2.4914666E3,2.5005648E0,5.5302484E2,9.594926E0,2.1726768E2,9.096464E1,7.1637854E2,3.2784264E1,4.8228268E2,4.2661957E2,9.8703575E0,1.1375058E2,2.6425354E0,2.5908917E2],"tree_param":{"num_deleted":"0","num_feature":"165","num_nodes":"59","size_leaf_vector":"1"}},{"base_weights":[2.9807168E-4,8.229565E-1,-8.374023E-1,-1.2718507E0,1.0428778E0,-9.8292255E-1,7.249667E-1,-1.3001949E0,4.2004654E-1,1.194263E0,-4.1393217E-1,-6.926681E-1,-6.6596866E-2,1.0529585E0,-1.203143E0,-6.563651E-2,4.2429853E-2,-4.4971243E-2,5.8550816E-2,1.2505155E0,9.49695E-2,5.032532E-1,-1.265042E0,-8.3699954E-1,1.3463999E0,-6.4591534E-2,1.2174238E0,4.593907E-2,-6.542459E-2,2.6055482E-1,1.2821207E0,-3.68057E-1,1.2403377E0,9.6333504E-1,-1.2595036E0,-1.3050302E0,6.4224266E-2,-5.9254616E-2,-1.0564742E0,2.200952E-2,6.789794E-2,1.2851549E0,-5.9450608E-2,-3.5974186E-2,4.544459E-2,6.449911E-2,-6.3474946E-2,-5.375501E-2,1.4900828E-2,-5.737659E-2,6.724701E-2,-7.6916955E-2,6.690705E-2,5.259146E-2,-7.206452E-2,-6.7165054E-2,5.851319E-2,-4.9485214E-2,3.4246188E-2,-4.957087E-3,-5.7106834E-2,6.562092E-2,-5.212135E-2],"categories":[],"categories_nodes":[],"categories_segments":[],"categories_sizes":[],"default_left":[0,0,0,0,0,0,0,0,0,0,0,0,0,0,0,0,0,0,0,0,0,0,0,0,0,0,0,0,0,0,0,0,0,0,0,0,0,0,0,0,0,0,0,0,0,0,0,0,0,0,0,0,0,0,0,0,0,0,0,0,0,0,0],"id":14,"left_children":[1,3,5,7,9,11,13,15,17,19,21,23,-1,25,27,-1,-1,-1,-1,29,31,33,35,37,39,-1,41,-1,-1,43,45,47,49,51,53,55,-1,57,59,-1,-1,61,-1,-1,-1,-1,-1,-1,-1,-1,-1,-1,-1,-1,-1,-1,-1,-1,-1,-1,-1,-1,-1],"loss_changes":[5.061031E3,1.7083074E3,8.2799805E2,1.7449707E1,7.4013184E2,3.3632642E2,1.9769887E2,1.0458618E1,7.5570526E0,1.8776465E2,2.4766125E2,5.3664954E2,0E0,1.041474E2,1.140097E1,0E0,0E0,0E0,0E0,9.009863E1,7.9470634E1,1.25318794E2,1.8438995E1,2.9011438E2,6.6622925E-1,0E0,4.2124023E1,0E0,0E0,5.826919E1,5.7816895E1,5.064954E1,1.2313728E1,1.1637483E2,1.5006157E1,1.6954132E1,0E0,2.6047406E2,1.0860974E2,0E0,0E0,1.677124E1,0E0,0E0,0E0,0E0,0E0,0E0,0E0,0E0,0E0,0E0,0E0,0E0,0E0,0E0,0E0,0E0,0E0,0E0,0E0,0E0,0E0],"parents":[2147483647,0,0,1,1,2,2,3,3,4,4,5,5,6,6,7,7,8,8,9,9,10,10,11,11,13,13,14,14,19,19,20,20,21,21,22,22,23,23,24,24,26,26,29,29,30,30,31,31,32,32,33,33,34,34,35,35,37,37,38,38,41,41],"right_children":[2,4,6,8,10,12,14,16,18,20,22,24,-1,26,28,-1,-1,-1,-1,30,32,34,36,38,40,-1,42,-1,-1,44,46,48,50,52,54,56,-1,58,60,-1,-1,62,-1,-1,-1,-1,-1,-1,-1,-1,-1,-1,-1,-1,-1,-1,-1,-1,-1,-1,-1,-1,-1],"split_conditions":[-8.7363905E-1,-7.219315E-1,1.5611548E0,-6.4372426E-1,-1.9461322E-1,-4.0032983E-1,-3.00171E-1,-1.0028135E-1,-1.6761024E-1,2.1423672E-1,-1.5355521E0,4.0068895E-1,-6.6596866E-2,-1.4632438E-1,-3.772319E-1,-6.563651E-2,4.2429853E-2,-4.4971243E-2,5.8550816E-2,-1.9879484E-1,-2.8030282E-2,-1.5180121E-1,-1.1994508E-1,-3.9927435E-1,-1.16604656E-1,-6.4591534E-2,-2.2395314E-1,4.593907E-2,-6.542459E-2,-1.6630942E-1,-3.1875357E-2,1.3343874E0,2.3528898E-1,-1.99633E-1,-2.6030162E-1,-3.180393E-1,6.4224266E-2,-1.8409815E-1,-2.362238E-1,2.200952E-2,6.789794E-2,4.6578348E-1,-5.9450608E-2,-3.5974186E-2,4.544459E-2,6.449911E-2,-6.3474946E-2,-5.375501E-2,1.4900828E-2,-5.737659E-2,6.724701E-2,-7.6916955E-2,6.690705E-2,5.259146E-2,-7.206452E-2,-6.7165054E-2,5.851319E-2,-4.9485214E-2,3.4246188E-2,-4.957087E-3,-5.7106834E-2,6.562092E-2,-5.212135E-2],"split_indices":[54,135,99,51,17,58,94,57,1,158,79,46,0,1,40,0,0,0,0,1,71,1,101,46,15,0,106,0,0,141,4,2,2,1,106,39,0,129,126,0,0,51,0,0,0,0,0,0,0,0,0,0,0,0,0,0,0,0,0,0,0,0,0],"split_type":[0,0,0,0,0,0,0,0,0,0,0,0,0,0,0,0,0,0,0,0,0,0,0,0,0,0,0,0,0,0,0,0,0,0,0,0,0,0,0,0,0,0,0,0,0,0,0,0,0,0,0,0,0,0,0,0,0,0,0,0,0,0,0],"sum_hessian":[7.3419663E3,3.7042493E3,3.6377173E3,3.5148456E2,3.3527646E3,3.328106E3,3.0961148E2,3.459209E2,5.563651E0,3.03732E3,3.1544446E2,1.8186387E3,1.5094672E3,2.649881E2,4.4623386E1,3.4430142E2,1.6194657E0,1.9462899E0,3.617361E0,2.8893313E3,1.4798885E2,1.5202538E2,1.634191E2,1.69897E3,1.19668724E2,1.6918962E1,2.4806914E2,1.7454478E0,4.287794E1,8.967626E1,2.799655E3,1.0586893E2,4.211991E1,1.2091889E2,3.1106482E1,1.6137611E2,2.042984E0,3.7420004E2,1.3247699E3,1.9993904E0,1.1766933E2,2.4173135E2,6.3377805E0,3.566087E1,5.401539E1,2.7915488E3,8.1063175E0,5.105718E1,5.481175E1,1.3492306E0,4.0770683E1,1.5351257E1,1.05567635E2,1.9191632E0,2.9187319E1,1.593694E2,2.0067167E0,1.6614201E2,2.0805804E2,1.0898226E2,1.2157877E3,2.393638E2,2.367562E0],"tree_param":{"num_deleted":"0","num_feature":"165","num_nodes":"63","size_leaf_vector":"1"}},{"base_weights":[9.41705E-3,7.5189775E-1,-8.6137855E-1,1.2504736E0,-1.462829E-1,-1.1504534E0,6.383466E-2,-6.3131803E-1,1.2854702E0,7.2648525E-1,-7.3839825E-1,-7.05266E-1,-1.216008E0,5.035708E-1,-6.561669E-2,-1.246477E0,7.795015E-1,1.2936339E0,-6.6775195E-2,-1.0780727E0,9.462787E-1,-1.3070576E0,-4.0990153E-1,-9.5775574E-1,5.687917E-1,2.9953346E-1,-1.2296131E0,-6.5039355E-1,1.2190522E0,3.4238946E-2,-1.4135364E0,6.7349374E-2,-5.7308305E-2,1.2980436E0,-6.2716015E-2,7.575912E-1,-1.3319124E0,-1.1972632E0,1.0146943E0,5.1926922E-2,-1.3278413E0,-1.0650372E-1,-1.3187989E0,7.991918E-1,-1.0412862E0,1.7102627E0,-1.0671282E0,-6.2162835E-2,1.503247E0,-1.2401893E0,2.8437555E-1,-1.3175442E0,-2.611172E-2,1.3080782E0,-8.690146E-1,-7.951251E-2,-7.2935964E-3,6.509175E-2,-5.697715E-2,6.1388064E-2,-5.0410148E-2,-7.228671E-2,2.9481634E-2,3.267808E-2,-7.505996E-2,5.3388238E-2,-6.265161E-2,-6.72461E-2,1.0186747E-2,-4.273283E-2,9.923074E-3,-6.7851126E-2,-3.8485344E-2,-4.824954E-2,6.134174E-2,-3.4677576E-2,-6.792467E-2,9.0861864E-2,-3.7290048E-2,8.146289E-2,-7.0775874E-2,8.348149E-2,3.3926908E-2,-6.342069E-2,-4.5501873E-2,1.442497E-1,-6.0444947E-2,-1.9770542E-3,-6.772563E-2,3.3406205E-2,-5.9185453E-2,6.6582374E-2,-5.31055E-2,6.827049E-2,-6.5389775E-2],"categories":[],"categories_nodes":[],"categories_segments":[],"categories_sizes":[],"default_left":[0,0,0,0,0,0,0,0,0,0,0,0,0,0,0,0,0,0,0,0,0,0,0,0,0,0,0,0,0,0,0,0,0,0,0,0,0,0,0,0,0,0,0,0,0,0,0,0,0,0,0,0,0,0,0,0,0,0,0,0,0,0,0,0,0,0,0,0,0,0,0,0,0,0,0,0,0,0,0,0,0,0,0,0,0,0,0,0,0,0,0,0,0,0,0],"id":15,"left_children":[1,3,5,7,9,11,13,15,17,19,21,23,25,27,-1,29,31,33,-1,35,37,39,41,43,45,47,49,51,53,-1,55,-1,-1,57,-1,59,61,63,65,-1,67,69,71,73,75,77,79,-1,81,83,85,87,89,91,93,-1,-1,-1,-1,-1,-1,-1,-1,-1,-1,-1,-1,-1,-1,-1,-1,-1,-1,-1,-1,-1,-1,-1,-1,-1,-1,-1,-1,-1,-1,-1,-1,-1,-1,-1,-1,-1,-1,-1,-1],"loss_changes":[4.6055425E3,1.7219761E3,8.768899E2,1.63646E2,7.102533E2,7.204297E1,4.7352435E2,4.0733032E1,5.3673584E1,2.2139542E2,1.524046E2,1.0444881E2,4.5234863E1,4.9031354E2,0E0,1.1385292E1,1.7417898E1,2.882666E1,0E0,2.9336739E1,7.392856E1,1.5971039E1,1.433648E2,4.044925E1,1.0275744E2,3.9315285E1,3.488794E1,9.4745575E1,6.923468E1,0E0,6.49831E0,0E0,0E0,2.382129E1,0E0,7.898588E0,1.2612869E1,9.866072E0,5.9229736E1,0E0,8.047119E0,8.943785E1,1.6871643E0,1.0853827E1,2.7530487E1,9.820915E0,2.3752577E1,0E0,4.8343468E-1,1.8805664E1,6.47513E1,5.142853E0,9.608834E1,2.106427E1,1.70615E1,0E0,0E0,0E0,0E0,0E0,0E0,0E0,0E0,0E0,0E0,0E0,0E0,0E0,0E0,0E0,0E0,0E0,0E0,0E0,0E0,0E0,0E0,0E0,0E0,0E0,0E0,0E0,0E0,0E0,0E0,0E0,0E0,0E0,0E0,0E0,0E0,0E0,0E0,0E0,0E0],"parents":[2147483647,0,0,1,1,2,2,3,3,4,4,5,5,6,6,7,7,8,8,9,9,10,10,11,11,12,12,13,13,15,15,16,16,17,17,19,19,20,20,21,21,22,22,23,23,24,24,25,25,26,26,27,27,28,28,30,30,33,33,35,35,36,36,37,37,38,38,40,40,41,41,42,42,43,43,44,44,45,45,46,46,48,48,49,49,50,50,51,51,52,52,53,53,54,54],"right_children":[2,4,6,8,10,12,14,16,18,20,22,24,26,28,-1,30,32,34,-1,36,38,40,42,44,46,48,50,52,54,-1,56,-1,-1,58,-1,60,62,64,66,-1,68,70,72,74,76,78,80,-1,82,84,86,88,90,92,94,-1,-1,-1,-1,-1,-1,-1,-1,-1,-1,-1,-1,-1,-1,-1,-1,-1,-1,-1,-1,-1,-1,-1,-1,-1,-1,-1,-1,-1,-1,-1,-1,-1,-1,-1,-1,-1,-1,-1,-1],"split_conditions":[-3.7718505E-1,-8.51741E-1,1.2283126E0,-2.0096247E-1,-1.0613744E-1,-3.5727948E-1,-4.020847E-1,2.1868834E0,-4.8367273E-2,-2.292858E-1,-1.1628157E-1,4.085964E-1,-1.8782978E-1,-3.8318443E-1,-6.561669E-2,-1.0704144E-1,-8.7580764E-1,-2.5627005E-1,-6.6775195E-2,-2.0496552E0,-1.1650666E-1,-5.461632E-1,-3.3314E-1,-8.7939507E-1,-3.1426024E-1,-1.3436298E-1,4.9204683E0,-1.1547822E-1,-1.1330556E-1,3.4238946E-2,-3.299457E-2,6.7349374E-2,-5.7308305E-2,-3.273209E-1,-6.2716015E-2,-1.2807925E-1,-2.7331012E-1,-1.5281212E-1,-3.1864755E-2,5.1926922E-2,1.5876014E0,-1.9879484E-1,1.4249207E0,-1.14537835E-1,-4.647061E-1,-6.8148094E-1,-1.0116321E0,-6.2162835E-2,-4.7056285E-1,1.0111189E0,-3.273077E-1,-2.8122157E-1,-3.2732975E-1,2.3473704E-1,-3.2733706E-1,-7.951251E-2,-7.2935964E-3,6.509175E-2,-5.697715E-2,6.1388064E-2,-5.0410148E-2,-7.228671E-2,2.9481634E-2,3.267808E-2,-7.505996E-2,5.3388238E-2,-6.265161E-2,-6.72461E-2,1.0186747E-2,-4.273283E-2,9.923074E-3,-6.7851126E-2,-3.8485344E-2,-4.824954E-2,6.134174E-2,-3.4677576E-2,-6.792467E-2,9.0861864E-2,-3.7290048E-2,8.146289E-2,-7.0775874E-2,8.348149E-2,3.3926908E-2,-6.342069E-2,-4.5501873E-2,1.442497E-1,-6.0444947E-2,-1.9770542E-3,-6.772563E-2,3.3406205E-2,-5.9185453E-2,6.6582374E-2,-5.31055E-2,6.827049E-2,-6.5389775E-2],"split_indices":[40,89,102,1,162,42,58,147,161,1,15,1,93,46,0,63,54,124,0,73,15,154,24,54,2,41,5,15,120,0,132,0,0,28,0,131,124,132,13,0,73,1,150,15,83,99,97,0,82,135,22,124,22,54,22,0,0,0,0,0,0,0,0,0,0,0,0,0,0,0,0,0,0,0,0,0,0,0,0,0,0,0,0,0,0,0,0,0,0,0,0,0,0,0,0],"split_type":[0,0,0,0,0,0,0,0,0,0,0,0,0,0,0,0,0,0,0,0,0,0,0,0,0,0,0,0,0,0,0,0,0,0,0,0,0,0,0,0,0,0,0,0,0,0,0,0,0,0,0,0,0,0,0,0,0,0,0,0,0,0,0,0,0,0,0,0,0,0,0,0,0,0,0,0,0,0,0,0,0,0,0,0,0,0,0,0,0,0,0,0,0,0,0],"sum_hessian":[7.121268E3,3.8439094E3,3.2773586E3,2.4715637E3,1.3723458E3,2.4969612E3,7.803976E2,4.481449E1,2.426749E3,5.5461926E2,8.177265E2,3.2199783E2,2.1749634E3,5.9189844E2,1.8849911E2,3.1288338E1,1.3526153E1,2.4197188E3,7.030407E0,5.9793674E1,4.948256E2,2.9832257E2,5.1940393E2,2.6894684E2,5.3050983E1,1.9164135E1,2.1557993E3,2.2656844E2,3.6533002E2,2.2443204E0,2.9044018E1,1.0679468E1,2.8466847E0,2.4160278E3,3.6908195E0,7.022845E0,5.277083E1,1.4794564E1,4.8003104E2,2.1900518E0,2.9613254E2,3.902517E2,1.291522E2,1.1817372E1,2.571295E2,3.1220963E1,2.183002E1,8.384691E0,1.0779443E1,2.1410237E3,1.477562E1,1.0898696E2,1.17581474E2,3.5074915E2,1.458086E1,2.5267262E1,3.776755E0,2.412741E3,3.28684E0,5.786734E0,1.2361103E0,5.005355E1,2.7172804E0,1.9245626E0,1.2870002E1,4.6957104E2,1.0459988E1,2.929869E2,3.14563E0,1.12488335E2,2.7776337E2,1.1937112E2,9.781086E0,2.0605059E0,9.756866E0,1.2418236E2,1.3294713E2,3.0167126E1,1.0538367E0,2.0771573E0,1.9752865E1,8.117294E0,2.6621492E0,1.9697861E3,1.7123752E2,5.0495553E0,9.726066E0,3.12218E0,1.0586478E2,7.376554E1,4.3815933E1,3.477295E2,3.0196657E0,2.0466712E0,1.2534189E1],"tree_param":{"num_deleted":"0","num_feature":"165","num_nodes":"95","size_leaf_vector":"1"}},{"base_weights":[-9.383216E-3,7.9914904E-1,-8.006575E-1,-1.2711135E0,1.0096062E0,-9.3748E-1,7.0784545E-1,-6.434389E-2,2.0983255E-2,1.1471165E0,-4.6917683E-1,-6.5241027E-1,-6.4617455E-2,1.0228006E0,-1.1614606E0,1.2070317E0,2.5172766E-2,4.0472987E-1,-1.2764466E0,-7.7061015E-1,1.3091756E0,-1.0924159E0,1.2025422E0,4.3715447E-2,-6.335723E-2,1.2026096E-1,1.2419477E0,-4.2913643E-1,1.1702453E0,8.78107E-1,-1.2086909E0,-6.6479184E-2,-4.3454966E-1,-1.2435528E0,-3.95321E-1,1.9723203E-2,6.613464E-2,3.2233212E-2,-6.472376E-2,1.2561877E0,-5.4644495E-2,-7.453239E-2,2.547792E-2,6.25285E-2,-6.1584987E-2,-6.476771E-2,9.33298E-3,-5.9761662E-2,6.414842E-2,-7.1168475E-2,6.3857704E-2,5.010153E-2,-6.9809794E-2,-6.0699593E-2,7.1537696E-2,3.5721097E-2,-6.3850395E-2,2.1320038E-2,-3.736208E-2,6.396369E-2,-4.753069E-2],"categories":[],"categories_nodes":[],"categories_segments":[],"categories_sizes":[],"default_left":[0,0,0,0,0,0,0,0,0,0,0,0,0,0,0,0,0,0,0,0,0,0,0,0,0,0,0,0,0,0,0,0,0,0,0,0,0,0,0,0,0,0,0,0,0,0,0,0,0,0,0,0,0,0,0,0,0,0,0,0,0],"id":16,"left_children":[1,3,5,7,9,11,13,-1,-1,15,17,19,-1,21,23,25,27,29,31,33,35,37,39,-1,-1,41,43,45,47,49,51,-1,53,55,57,-1,-1,-1,-1,59,-1,-1,-1,-1,-1,-1,-1,-1,-1,-1,-1,-1,-1,-1,-1,-1,-1,-1,-1,-1,-1],"loss_changes":[4.3840083E3,1.4779976E3,7.154553E2,8.887878E0,6.262573E2,3.2041113E2,1.7107843E2,0E0,0E0,1.892373E2,1.8570515E2,4.0978082E2,0E0,9.540585E1,1.016066E1,1.0127246E2,7.5288185E1,9.791119E1,5.537369E0,2.9475452E2,7.2169495E-1,7.821762E0,2.9519897E1,0E0,0E0,5.3630463E1,5.6770508E1,5.553312E1,1.2493454E1,9.23911E1,1.3497337E1,0E0,1.5695557E1,4.9090942E1,2.689515E2,0E0,0E0,0E0,0E0,1.2619171E1,0E0,0E0,0E0,0E0,0E0,0E0,0E0,0E0,0E0,0E0,0E0,0E0,0E0,0E0,0E0,0E0,0E0,0E0,0E0,0E0,0E0],"parents":[2147483647,0,0,1,1,2,2,3,3,4,4,5,5,6,6,9,9,10,10,11,11,13,13,14,14,15,15,16,16,17,17,18,18,19,19,20,20,21,21,22,22,25,25,26,26,27,27,28,28,29,29,30,30,32,32,33,33,34,34,39,39],"right_children":[2,4,6,8,10,12,14,-1,-1,16,18,20,-1,22,24,26,28,30,32,34,36,38,40,-1,-1,42,44,46,48,50,52,-1,54,56,58,-1,-1,-1,-1,60,-1,-1,-1,-1,-1,-1,-1,-1,-1,-1,-1,-1,-1,-1,-1,-1,-1,-1,-1,-1,-1],"split_conditions":[-1.0019298E0,-5.8674645E-1,1.5611548E0,3.282506E-1,-1.8596613E-1,-4.0031987E-1,-3.00171E-1,-6.434389E-2,2.0983255E-2,2.1423672E-1,-1.5355521E0,5.0376415E-1,-6.4617455E-2,-1.4138182E-1,-3.772319E-1,-1.9879484E-1,-2.8030282E-2,-1.5180121E-1,-3.536367E-1,-1.1547854E-1,-1.1660243E-1,-2.365916E-1,-4.0283015E-1,4.3715447E-2,-6.335723E-2,2.537729E-1,-3.1875357E-2,-1.0070158E0,2.3528898E-1,-2.0769648E-1,-1.1777496E0,-6.6479184E-2,1.0114224E0,-1.8782978E-1,-3.7714404E-1,1.9723203E-2,6.613464E-2,3.2233212E-2,-6.472376E-2,-5.3794727E-2,-5.4644495E-2,-7.453239E-2,2.547792E-2,6.25285E-2,-6.1584987E-2,-6.476771E-2,9.33298E-3,-5.9761662E-2,6.414842E-2,-7.1168475E-2,6.3857704E-2,5.010153E-2,-6.9809794E-2,-6.0699593E-2,7.1537696E-2,3.5721097E-2,-6.3850395E-2,2.1320038E-2,-3.736208E-2,6.396369E-2,-4.753069E-2],"split_indices":[52,99,99,1,17,64,94,0,0,158,79,45,0,75,40,1,71,1,87,15,15,126,60,0,0,99,4,52,2,1,55,0,135,93,40,0,0,0,0,105,0,0,0,0,0,0,0,0,0,0,0,0,0,0,0,0,0,0,0,0,0],"split_type":[0,0,0,0,0,0,0,0,0,0,0,0,0,0,0,0,0,0,0,0,0,0,0,0,0,0,0,0,0,0,0,0,0,0,0,0,0,0,0,0,0,0,0,0,0,0,0,0,0,0,0,0,0,0,0,0,0,0,0,0,0],"sum_hessian":[6.850467E3,3.3882786E3,3.462188E3,3.1219397E2,3.0760847E3,3.1746255E3,2.875626E2,3.0954672E2,2.6472495E0,2.814584E3,2.6150064E2,1.7620181E3,1.4126073E3,2.4648563E2,4.107696E1,2.6718247E3,1.4275923E2,1.2580719E2,1.3569345E2,1.6624504E3,9.956762E1,1.8907122E1,2.275785E2,1.6682822E0,3.9408676E1,8.330709E1,2.5885176E3,1.0265567E2,4.0103554E1,9.762098E1,2.8186214E1,1.27092606E2,8.600842E0,7.34506E2,9.2794446E2,1.8894554E0,9.767816E1,1.7418822E0,1.716524E1,2.2282375E2,4.7547584E0,1.5663328E1,6.764376E1,2.580019E3,8.498594E0,4.219623E1,6.0459442E1,1.3873292E0,3.8716225E1,1.404581E1,8.3575165E1,1.8640988E0,2.6322117E1,6.3123245E0,2.2885182E0,1.199738E1,7.225086E2,2.7818378E2,6.497607E2,2.2093279E2,1.8909552E0],"tree_param":{"num_deleted":"0","num_feature":"165","num_nodes":"61","size_leaf_vector":"1"}},{"base_weights":[5.708569E-3,7.959047E-1,-7.653336E-1,-1.2150822E0,9.947978E-1,-8.990876E-1,7.0595074E-1,-1.2466214E0,6.104411E-1,1.1422231E0,-3.3431894E-1,-6.074834E-1,-6.368163E-2,1.0123466E0,-6.245161E-2,-6.340434E-2,-1.9187178E-1,-3.3276614E-2,5.2053805E-2,1.1955854E0,1.0272762E-1,5.259267E-1,-1.2343335E0,-7.355415E-1,1.2841505E0,-7.024391E-1,1.1763883E0,6.400018E-2,-5.258673E-2,1.2041271E0,-6.103434E-2,-1.3086138E0,4.1959512E-1,7.8506935E-1,-6.658581E-2,-1.2746698E0,5.7050098E-2,-1.206007E0,-3.6688924E-1,1.8270476E-2,6.481331E-2,4.8076015E-2,-6.337507E-2,1.236003E0,-5.45654E-2,6.053411E-2,-8.7681316E-2,-8.945719E-2,3.8607292E-2,3.8530093E-2,-5.4467496E-2,4.944151E-2,-7.261328E-2,-6.614094E-2,-1.6374841E-2,-6.1871704E-2,4.6482403E-2,5.1246197E-3,-4.6703298E-2,-4.8502613E-2,6.280436E-2],"categories":[],"categories_nodes":[],"categories_segments":[],"categories_sizes":[],"default_left":[0,0,0,0,0,0,0,0,0,0,0,0,0,0,0,0,0,0,0,0,0,0,0,0,0,0,0,0,0,0,0,0,0,0,0,0,0,0,0,0,0,0,0,0,0,0,0,0,0,0,0,0,0,0,0,0,0,0,0,0,0],"id":17,"left_children":[1,3,5,7,9,11,13,15,17,19,21,23,-1,25,-1,-1,27,-1,-1,29,31,33,35,37,39,41,43,-1,-1,45,-1,47,49,51,-1,53,-1,55,57,-1,-1,-1,-1,59,-1,-1,-1,-1,-1,-1,-1,-1,-1,-1,-1,-1,-1,-1,-1,-1,-1],"loss_changes":[4.0781292E3,1.323373E3,6.673153E2,1.7916473E1,5.899192E2,3.384485E2,1.7070695E2,6.395569E0,3.8423324E0,1.5011792E2,2.3382925E2,4.244303E2,0E0,6.977249E1,0E0,0E0,1.0239459E1,0E0,0E0,5.463965E1,6.0182304E1,7.551291E1,1.5585205E1,2.836501E2,7.6420593E-1,2.1928562E1,3.1641235E1,0E0,0E0,5.1904297E1,0E0,2.6069935E1,5.891758E1,6.3610245E1,0E0,6.2021027E0,0E0,4.9420654E1,2.4497018E2,0E0,0E0,0E0,0E0,1.0913025E1,0E0,0E0,0E0,0E0,0E0,0E0,0E0,0E0,0E0,0E0,0E0,0E0,0E0,0E0,0E0,0E0,0E0],"parents":[2147483647,0,0,1,1,2,2,3,3,4,4,5,5,6,6,7,7,8,8,9,9,10,10,11,11,13,13,16,16,19,19,20,20,21,21,22,22,23,23,24,24,25,25,26,26,29,29,31,31,32,32,33,33,35,35,37,37,38,38,43,43],"right_children":[2,4,6,8,10,12,14,16,18,20,22,24,-1,26,-1,-1,28,-1,-1,30,32,34,36,38,40,42,44,-1,-1,46,-1,48,50,52,-1,54,-1,56,58,-1,-1,-1,-1,60,-1,-1,-1,-1,-1,-1,-1,-1,-1,-1,-1,-1,-1,-1,-1,-1,-1],"split_conditions":[-1.0019298E0,-5.8674645E-1,1.5611548E0,-8.7741977E-1,-1.9461322E-1,-4.0032983E-1,-3.00171E-1,-3.5235292E-1,9.3618736E-2,2.1423672E-1,-1.5355521E0,5.0376415E-1,-6.368163E-2,-1.4138182E-1,-6.245161E-2,-6.340434E-2,-1.2255988E0,-3.3276614E-2,5.2053805E-2,-3.1875357E-2,-3.9422488E-1,-4.8818227E-2,-3.180393E-1,-1.1547854E-1,-1.07041284E-1,-1.5268052E-1,-4.039635E-1,6.400018E-2,-5.258673E-2,-5.4341596E-1,-6.103434E-2,2.2413538E0,-1.07045926E-1,-4.7212812E-1,-6.658581E-2,-3.536367E-1,5.7050098E-2,-2.6634587E-2,-3.2732868E-1,1.8270476E-2,6.481331E-2,4.8076015E-2,-6.337507E-2,-2.0469563E-1,-5.45654E-2,6.053411E-2,-8.7681316E-2,-8.945719E-2,3.8607292E-2,3.8530093E-2,-5.4467496E-2,4.944151E-2,-7.261328E-2,-6.614094E-2,-1.6374841E-2,-6.1871704E-2,4.6482403E-2,5.1246197E-3,-4.6703298E-2,-4.8502613E-2,6.280436E-2],"split_indices":[52,99,99,54,17,58,94,87,133,158,79,45,0,75,0,0,138,0,0,4,59,160,39,15,63,123,58,0,0,53,0,115,57,82,0,87,0,72,22,0,0,0,0,0,0,0,0,0,0,0,0,0,0,0,0,0,0,0,0,0,0],"split_type":[0,0,0,0,0,0,0,0,0,0,0,0,0,0,0,0,0,0,0,0,0,0,0,0,0,0,0,0,0,0,0,0,0,0,0,0,0,0,0,0,0,0,0,0,0,0,0,0,0,0,0,0,0,0,0,0,0,0,0,0,0],"sum_hessian":[6.6914185E3,3.3046467E3,3.386772E3,2.9696417E2,3.0076824E3,3.1048955E3,2.8187628E2,2.9223245E2,4.7317286E0,2.707507E3,3.0017535E2,1.7472137E3,1.3576819E3,2.441015E2,3.7774784E1,2.8620563E2,6.0268326E0,1.0563351E0,3.6753936E0,2.5751616E3,1.3234554E2,1.5369107E2,1.4648428E2,1.6370045E3,1.1020931E2,2.1026098E1,2.230754E2,2.0422997E0,3.9845326E0,2.56659E3,8.57145E0,2.3691727E1,1.0865382E2,1.3538249E2,1.8308577E1,1.4449396E2,1.9903252E0,7.1819257E2,9.188119E2,1.8400145E0,1.083693E2,5.1523037E0,1.58737955E1,2.1780455E2,5.270849E0,2.561504E3,5.0862446E0,1.9360718E1,4.3310103E0,8.854583E1,2.0107985E1,1.2459343E2,1.0789064E1,1.3712659E2,7.3673673E0,7.0819183E2,1.0000748E1,5.0319733E2,4.156146E2,1.5382955E0,2.1626625E2],"tree_param":{"num_deleted":"0","num_feature":"165","num_nodes":"61","size_leaf_vector":"1"}},{"base_weights":[-1.4322069E-2,7.7289915E-1,-7.7567714E-1,-1.2370572E0,9.753371E-1,-8.986528E-1,6.6885364E-1,4.3618515E-2,-6.260785E-2,1.1205704E0,-3.3671367E-1,-6.2249357E-1,-6.284616E-2,9.91814E-1,-1.1207691E0,1.177188E0,9.267234E-2,5.298016E-1,-1.2703954E0,-8.0207884E-1,6.032438E-1,-6.1498698E-2,1.1584195E0,4.408244E-2,-6.1572652E-2,-1.7188358E-1,1.1951033E0,-3.6268288E-1,1.162186E0,9.458668E-1,-1.0894861E0,-6.5622024E-2,4.152329E-2,-1.2330351E0,-4.644506E-1,-9.3753856E-1,9.801676E-1,1.2211952E0,-5.506001E-2,-6.929136E-2,3.7798714E-2,6.005149E-2,-1.06904626E-1,-6.56014E-2,8.748542E-3,-5.5871733E-2,6.281643E-2,-7.1854845E-2,6.320342E-2,4.7491144E-2,-6.9325805E-2,2.0221228E-2,-6.305708E-2,-4.156782E-2,4.512965E-3,-6.509947E-2,6.851423E-2,5.8573324E-2,-6.0977664E-2,6.200866E-2,-3.9618578E-2],"categories":[],"categories_nodes":[],"categories_segments":[],"categories_sizes":[],"default_left":[0,0,0,0,0,0,0,0,0,0,0,0,0,0,0,0,0,0,0,0,0,0,0,0,0,0,0,0,0,0,0,0,0,0,0,0,0,0,0,0,0,0,0,0,0,0,0,0,0,0,0,0,0,0,0,0,0,0,0,0,0],"id":18,"left_children":[1,3,5,7,9,11,13,-1,-1,15,17,19,-1,21,23,25,27,29,31,33,35,-1,37,-1,-1,39,41,43,45,47,49,-1,-1,51,53,55,57,59,-1,-1,-1,-1,-1,-1,-1,-1,-1,-1,-1,-1,-1,-1,-1,-1,-1,-1,-1,-1,-1,-1,-1],"loss_changes":[3.8843767E3,1.2977043E3,5.8585767E2,1.0393036E1,5.520962E2,2.996516E2,1.508327E2,0E0,0E0,1.5161304E2,2.3474756E2,3.7838293E2,0E0,8.285033E1,9.966782E0,5.9922607E1,6.723259E1,1.0260415E2,1.3417114E1,2.1736157E2,1.2865857E2,0E0,3.0444183E1,0E0,0E0,3.8506207E1,5.0740234E1,4.9731136E1,1.0246735E1,9.3171745E1,2.0266552E1,0E0,0E0,3.0763794E1,1.7133049E2,3.8575638E1,7.599968E1,8.628143E0,0E0,0E0,0E0,0E0,0E0,0E0,0E0,0E0,0E0,0E0,0E0,0E0,0E0,0E0,0E0,0E0,0E0,0E0,0E0,0E0,0E0,0E0,0E0],"parents":[2147483647,0,0,1,1,2,2,3,3,4,4,5,5,6,6,9,9,10,10,11,11,13,13,14,14,15,15,16,16,17,17,18,18,19,19,20,20,22,22,25,25,26,26,27,27,28,28,29,29,30,30,33,33,34,34,35,35,36,36,37,37],"right_children":[2,4,6,8,10,12,14,-1,-1,16,18,20,-1,22,24,26,28,30,32,34,36,-1,38,-1,-1,40,42,44,46,48,50,-1,-1,52,54,56,58,60,-1,-1,-1,-1,-1,-1,-1,-1,-1,-1,-1,-1,-1,-1,-1,-1,-1,-1,-1,-1,-1,-1,-1],"split_conditions":[-1.0019298E0,-5.8674645E-1,1.5611548E0,-1.3579217E0,-1.960231E-1,-4.0031987E-1,-3.00171E-1,4.3618515E-2,-6.260785E-2,2.1423672E-1,-1.5355521E0,-1.4101028E-1,-6.284616E-2,-1.4632438E-1,-3.772319E-1,-2.2977713E-1,-2.8030282E-2,-1.5180121E-1,-3.573443E-1,-1.1547854E-1,-1.9651163E-1,-6.1498698E-2,-2.2395314E-1,4.408244E-2,-6.1572652E-2,-1.6630942E-1,-4.1399312E-1,-1.0070208E0,2.3528898E-1,-1.99633E-1,-2.6030162E-1,-6.5622024E-2,4.152329E-2,-1.8782978E-1,-1.4031956E-1,-2.5747713E-1,-2.1746233E-1,-3.9410584E-2,-5.506001E-2,-6.929136E-2,3.7798714E-2,6.005149E-2,-1.06904626E-1,-6.56014E-2,8.748542E-3,-5.5871733E-2,6.281643E-2,-7.1854845E-2,6.320342E-2,4.7491144E-2,-6.9325805E-2,2.0221228E-2,-6.305708E-2,-4.156782E-2,4.512965E-3,-6.509947E-2,6.851423E-2,5.8573324E-2,-6.0977664E-2,6.200866E-2,-3.9618578E-2],"split_indices":[52,99,99,100,17,64,94,0,0,158,79,75,0,1,40,1,71,1,42,15,1,0,106,0,0,141,83,52,2,1,106,0,0,93,101,137,29,52,0,0,0,0,0,0,0,0,0,0,0,0,0,0,0,0,0,0,0,0,0,0,0],"split_type":[0,0,0,0,0,0,0,0,0,0,0,0,0,0,0,0,0,0,0,0,0,0,0,0,0,0,0,0,0,0,0,0,0,0,0,0,0,0,0,0,0,0,0,0,0,0,0,0,0,0,0,0,0,0,0,0,0,0,0,0,0],"sum_hessian":[6.478929E3,3.185348E3,3.2935815E3,2.9099728E2,2.8943506E3,3.0355383E3,2.5804327E2,1.6647063E0,2.8933258E2,2.6060303E3,2.8832037E2,1.7157526E3,1.3197856E3,2.1897266E2,3.907062E1,2.4698435E3,1.3618666E2,1.4976324E2,1.3855711E2,1.4967992E3,2.1895348E2,1.4829494E1,2.0414316E2,1.6816632E0,3.7388958E1,3.2256084E1,2.4375874E3,9.598223E1,4.0204422E1,1.1947962E2,3.0283623E1,1.3620648E2,2.3506446E0,6.5635767E2,8.4044147E2,4.2742813E1,1.7621066E2,1.9907219E2,5.070976E0,1.3759954E1,1.849613E1,2.4338997E3,3.6878614E0,3.4183502E1,6.1798733E1,1.1634104E0,3.904101E1,1.3660657E1,1.0581897E2,3.5706928E0,2.6712929E1,1.0850137E1,6.455075E2,5.055519E2,3.348896E2,3.728985E1,5.4529643E0,1.6254257E2,1.3668082E1,1.9759393E2,1.4782549E0],"tree_param":{"num_deleted":"0","num_feature":"165","num_nodes":"61","size_leaf_vector":"1"}},{"base_weights":[2.658157E-3,6.9573E-1,-8.275621E-1,1.2022071E0,-1.10792056E-1,-9.725618E-1,6.8639565E-1,-8.1399417E-1,1.2282729E0,6.8410784E-1,-6.6607815E-1,-7.3211503E-1,-6.2007327E-2,9.98513E-1,-6.050986E-2,-7.5004525E-2,5.3312343E-1,1.2333361E0,-5.796516E-2,-1.1763405E0,8.711175E-1,-7.8412247E-1,8.866826E-1,-8.8813823E-1,1.250147E0,-5.825592E-2,1.1427513E0,5.9619118E-2,-5.018261E-2,1.2381934E0,-5.600008E-2,4.6307787E-1,-6.908613E-2,-6.976714E-1,9.527099E-1,-2.6812848E-1,-1.0602133E0,-6.506373E-2,1.3224045E0,2.8937167E-1,-1.0116891E0,1.6332394E-2,6.314846E-2,1.2017823E0,-5.4029282E-2,-5.874412E-2,6.2012922E-2,6.054252E-2,-5.1305037E-2,4.867617E-2,-7.3028296E-2,4.9849465E-2,-5.84974E-2,-6.575351E-2,9.213896E-3,-6.362694E-2,-2.6507294E-2,7.171756E-2,-5.605008E-2,3.5332274E-2,-6.6260666E-2,-5.228904E-2,9.2765056E-2,6.150749E-2,-4.7892164E-2],"categories":[],"categories_nodes":[],"categories_segments":[],"categories_sizes":[],"default_left":[0,0,0,0,0,0,0,0,0,0,0,0,0,0,0,0,0,0,0,0,0,0,0,0,0,0,0,0,0,0,0,0,0,0,0,0,0,0,0,0,0,0,0,0,0,0,0,0,0,0,0,0,0,0,0,0,0,0,0,0,0,0,0,0,0],"id":19,"left_children":[1,3,5,7,9,11,13,15,17,19,21,23,-1,25,-1,-1,27,29,-1,31,33,35,37,39,41,-1,43,-1,-1,45,-1,47,-1,49,51,53,55,-1,57,59,61,-1,-1,63,-1,-1,-1,-1,-1,-1,-1,-1,-1,-1,-1,-1,-1,-1,-1,-1,-1,-1,-1,-1,-1],"loss_changes":[3.6329895E3,1.4057875E3,6.3128906E2,1.12090576E2,5.867647E2,1.6779199E2,1.5018727E2,2.6291323E1,2.666211E1,1.9126141E2,1.441276E2,4.2899103E2,0E0,6.894469E1,0E0,0E0,1.1373417E1,2.5200928E1,0E0,1.7598755E1,6.43342E1,1.033945E2,5.4874836E1,1.8696362E2,7.87735E-1,0E0,2.8022736E1,0E0,0E0,1.18203125E1,0E0,8.320671E0,0E0,3.351053E1,4.5646667E1,1.21026566E2,5.2645264E1,0E0,1.4461693E1,8.355147E1,1.15464966E2,0E0,0E0,1.3359009E1,0E0,0E0,0E0,0E0,0E0,0E0,0E0,0E0,0E0,0E0,0E0,0E0,0E0,0E0,0E0,0E0,0E0,0E0,0E0,0E0,0E0],"parents":[2147483647,0,0,1,1,2,2,3,3,4,4,5,5,6,6,7,7,8,8,9,9,10,10,11,11,13,13,16,16,17,17,19,19,20,20,21,21,22,22,23,23,24,24,26,26,29,29,31,31,33,33,34,34,35,35,36,36,38,38,39,39,40,40,43,43],"right_children":[2,4,6,8,10,12,14,16,18,20,22,24,-1,26,-1,-1,28,30,-1,32,34,36,38,40,42,-1,44,-1,-1,46,-1,48,-1,50,52,54,56,-1,58,60,62,-1,-1,64,-1,-1,-1,-1,-1,-1,-1,-1,-1,-1,-1,-1,-1,-1,-1,-1,-1,-1,-1,-1,-1],"split_conditions":[-3.9931533E-1,-8.5176224E-1,1.5611548E0,-2.0096247E-1,-1.0613744E-1,-4.0032983E-1,-3.00171E-1,2.1868834E0,-4.8367273E-2,-2.371759E-1,4.085964E-1,4.0068895E-1,-6.2007327E-2,-1.4632438E-1,-6.050986E-2,-7.5004525E-2,-6.418171E-1,-5.653276E-1,-5.796516E-2,-2.0496552E0,-1.1649866E-1,-1.5076919E0,-8.7741977E-1,-2.362238E-1,-3.9157787E-1,-5.825592E-2,-2.2395314E-1,5.9619118E-2,-5.018261E-2,-4.070532E-1,-5.600008E-2,-2.6521742E-1,-6.908613E-2,-1.0070353E0,-3.1875357E-2,-1.9879484E-1,-6.466339E-1,-6.506373E-2,-4.2201835E-1,-4.8818227E-2,-8.124035E-2,1.6332394E-2,6.314846E-2,4.6578348E-1,-5.4029282E-2,-5.874412E-2,6.2012922E-2,6.054252E-2,-5.1305037E-2,4.867617E-2,-7.3028296E-2,4.9849465E-2,-5.84974E-2,-6.575351E-2,9.213896E-3,-6.362694E-2,-2.6507294E-2,7.171756E-2,-5.605008E-2,3.5332274E-2,-6.6260666E-2,-5.228904E-2,9.2765056E-2,6.150749E-2,-4.7892164E-2],"split_indices":[46,89,99,1,162,58,94,147,161,1,1,46,0,1,0,0,51,54,0,73,15,80,54,126,59,0,106,0,0,58,0,1,0,52,4,1,51,0,136,160,63,0,0,51,0,0,0,0,0,0,0,0,0,0,0,0,0,0,0,0,0,0,0,0,0],"split_type":[0,0,0,0,0,0,0,0,0,0,0,0,0,0,0,0,0,0,0,0,0,0,0,0,0,0,0,0,0,0,0,0,0,0,0,0,0,0,0,0,0,0,0,0,0,0,0,0,0,0,0,0,0,0,0,0,0,0,0,0,0,0,0,0,0],"sum_hessian":[6.3118257E3,3.4401414E3,2.8716843E3,2.1128376E3,1.3273036E3,2.6210137E3,2.506707E2,2.6580765E1,2.0862568E3,5.4577997E2,7.815237E2,1.382479E3,1.2385345E3,2.1565453E2,3.5016174E1,1.7536001E1,9.044763E0,2.0823245E3,3.932405E0,4.9366966E1,4.9641296E2,7.267682E2,5.4755524E1,1.2821161E3,1.0036297E2,1.303573E1,2.0261879E2,6.486312E0,2.5584507E0,2.0785083E3,3.8161616E0,5.356348E0,4.401062E1,2.4168636E1,4.7224435E2,2.5401102E2,4.7275714E2,8.763507E0,4.5992016E1,1.2162442E2,1.1604917E3,1.7369604E0,9.862601E1,1.9782587E2,4.792934E0,1.29167E0,2.0772166E3,3.6902404E0,1.6661077E0,7.4884233E0,1.6680214E1,4.6311392E2,9.13041E0,7.606875E1,1.7794226E2,3.3654782E2,1.3620932E2,4.4372044E1,1.6199707E0,9.70938E1,2.4530615E1,1.147482E3,1.3009594E1,1.9568584E2,2.1400187E0],"tree_param":{"num_deleted":"0","num_feature":"165","num_nodes":"65","size_leaf_vector":"1"}},{"base_weights":[-1.2538896E-2,7.253493E-1,-7.645708E-1,-1.1384852E0,9.2762446E-1,-8.9868504E-1,6.9103307E-1,-1.1706384E0,5.0067224E-2,1.0498914E0,-5.13071E-1,-1.1207707E0,-4.8556572E-1,9.7771156E-1,-1.0791608E0,-1.1992638E0,4.7833154E-1,1.2238095E0,6.096111E-1,2.1878433E-1,-6.3963495E-2,-8.6755526E-1,-1.1716294E0,1.652645E-1,-1.1028355E0,-5.833396E-2,1.1239887E0,4.204501E-2,-5.9705295E-2,-6.1574813E-2,-3.6927608E-1,5.417749E-2,-4.0671084E-2,1.2258422E0,-1.7186582E-2,1.0021838E0,-1.8839908E-1,-6.69614E-2,7.816695E-1,-1.263965E0,-5.9827346E-1,-1.2321842E0,-1.0478829E0,5.868526E-1,-1.250713E0,5.775556E-1,-1.1467267E0,1.1802497E0,-5.3146776E-2,6.0382504E-2,-5.777501E-2,1.2039697E-2,6.136505E-2,5.411891E-2,-5.085222E-3,-3.6989536E-2,1.13316E-2,5.1480003E-2,-5.8834624E-2,7.699203E-2,-6.644706E-2,-6.404997E-2,-9.095027E-3,-6.200687E-2,-4.967408E-2,-1.1266593E-2,-5.7219118E-2,4.0982854E-2,-4.158631E-2,-6.569278E-2,4.55158E-2,1.1343359E-1,-5.5298757E-2,-3.99368E-2,-6.285565E-2,6.049786E-2,-4.818264E-2],"categories":[],"categories_nodes":[],"categories_segments":[],"categories_sizes":[],"default_left":[0,0,0,0,0,0,0,0,0,0,0,0,0,0,0,0,0,0,0,0,0,0,0,0,0,0,0,0,0,0,0,0,0,0,0,0,0,0,0,0,0,0,0,0,0,0,0,0,0,0,0,0,0,0,0,0,0,0,0,0,0,0,0,0,0,0,0,0,0,0,0,0,0,0,0,0,0],"id":20,"left_children":[1,3,5,7,9,11,13,15,-1,17,19,21,23,25,27,29,31,33,35,37,-1,39,41,43,45,-1,47,-1,-1,-1,49,-1,-1,51,-1,53,55,-1,57,59,61,63,65,67,69,71,73,75,-1,-1,-1,-1,-1,-1,-1,-1,-1,-1,-1,-1,-1,-1,-1,-1,-1,-1,-1,-1,-1,-1,-1,-1,-1,-1,-1,-1,-1],"loss_changes":[3.350856E3,1.1501443E3,5.8443384E2,2.1733429E1,4.8496265E2,2.5072754E2,1.2937622E2,1.4492737E1,0E0,1.9338672E2,1.2129108E2,2.1912354E1,3.8556866E2,6.973747E1,8.887165E0,7.3071594E0,5.373972E0,6.20874E0,2.2571292E2,9.8593094E1,0E0,3.1442856E1,9.797241E0,2.8000632E2,3.6984253E1,0E0,2.6443237E1,0E0,0E0,0E0,1.661352E1,0E0,0E0,2.3115234E0,0E0,4.2839203E1,5.4681034E1,0E0,4.1191032E1,2.4111969E1,5.136802E1,6.435547E-1,3.886548E1,1.19959816E2,1.5885361E1,4.009243E1,1.7444885E1,1.3907928E1,0E0,0E0,0E0,0E0,0E0,0E0,0E0,0E0,0E0,0E0,0E0,0E0,0E0,0E0,0E0,0E0,0E0,0E0,0E0,0E0,0E0,0E0,0E0,0E0,0E0,0E0,0E0,0E0,0E0],"parents":[2147483647,0,0,1,1,2,2,3,3,4,4,5,5,6,6,7,7,9,9,10,10,11,11,12,12,13,13,14,14,15,15,16,16,17,17,18,18,19,19,21,21,22,22,23,23,24,24,26,26,30,30,33,33,35,35,36,36,38,38,39,39,40,40,41,41,42,42,43,43,44,44,45,45,46,46,47,47],"right_children":[2,4,6,8,10,12,14,16,-1,18,20,22,24,26,28,30,32,34,36,38,-1,40,42,44,46,-1,48,-1,-1,-1,50,-1,-1,52,-1,54,56,-1,58,60,62,64,66,68,70,72,74,76,-1,-1,-1,-1,-1,-1,-1,-1,-1,-1,-1,-1,-1,-1,-1,-1,-1,-1,-1,-1,-1,-1,-1,-1,-1,-1,-1,-1,-1],"split_conditions":[-9.933302E-1,-6.385638E-1,1.5611548E0,-3.0143755E-2,-3.2733563E-1,-8.4461026E-2,-3.00171E-1,4.085964E-1,5.0067224E-2,-4.1199256E-2,-1.5324627E-1,-3.9917877E-1,-1.8012043E-2,-1.4632438E-1,-3.993699E-1,-3.5235292E-1,-1.24548644E-1,3.743647E-1,-1.0613744E-1,-1.9879484E-1,-6.3963495E-2,-2.3359212E-1,7.8483814E-1,-4.8818227E-2,-9.101368E-1,-5.833396E-2,-2.2395314E-1,4.204501E-2,-5.9705295E-2,-6.1574813E-2,-1.007003E0,5.417749E-2,-4.0671084E-2,-2.0473985E-1,-1.7186582E-2,1.4688343E-1,1.2350888E0,-6.69614E-2,-3.1875357E-2,-1.8782884E-1,-1.157508E-1,2.0425847E0,2.1511188E-1,-1.8458478E-1,6.345926E-3,-1.9802977E-1,-3.9627436E-1,4.6578348E-1,-5.3146776E-2,6.0382504E-2,-5.777501E-2,1.2039697E-2,6.136505E-2,5.411891E-2,-5.085222E-3,-3.6989536E-2,1.13316E-2,5.1480003E-2,-5.8834624E-2,7.699203E-2,-6.644706E-2,-6.404997E-2,-9.095027E-3,-6.200687E-2,-4.967408E-2,-1.1266593E-2,-5.7219118E-2,4.0982854E-2,-4.158631E-2,-6.569278E-2,4.55158E-2,1.1343359E-1,-5.5298757E-2,-3.99368E-2,-6.285565E-2,6.049786E-2,-4.818264E-2],"split_indices":[52,102,99,75,22,1,94,1,0,4,1,46,52,1,46,87,3,122,162,1,0,1,2,160,90,0,106,0,0,0,52,0,0,0,0,142,19,0,4,93,15,75,11,94,46,106,98,51,0,0,0,0,0,0,0,0,0,0,0,0,0,0,0,0,0,0,0,0,0,0,0,0,0,0,0,0,0],"split_type":[0,0,0,0,0,0,0,0,0,0,0,0,0,0,0,0,0,0,0,0,0,0,0,0,0,0,0,0,0,0,0,0,0,0,0,0,0,0,0,0,0,0,0,0,0,0,0,0,0,0,0,0,0,0,0,0,0,0,0,0,0,0,0,0,0,0,0,0,0,0,0,0,0,0,0,0,0],"sum_hessian":[6.036499E3,3.0469194E3,2.9895798E3,2.9784473E2,2.7490747E3,2.7377185E3,2.5186124E2,2.9388177E2,3.962961E0,2.534271E3,2.1480365E2,1.7794204E3,9.5829816E2,2.1714314E2,3.4718105E1,2.8913525E2,4.746523E0,1.8153839E3,7.188871E2,1.1022948E2,1.0457417E2,3.0064188E2,1.4787784E3,4.668248E2,4.9147336E2,1.3420839E1,2.037223E2,1.6042807E0,3.3113823E1,2.7786078E2,1.1274454E1,3.3419266E0,1.4045961E0,1.8132506E3,2.1333106E0,4.8167584E2,2.3721124E2,2.8888803E1,8.1340675E1,1.20119736E2,1.8052214E2,9.868906E2,4.9188785E2,3.6017355E2,1.06651245E2,1.2200817E1,4.7927252E2,1.9906154E2,4.660755E0,3.5726979E0,7.7017565E0,2.9268932E0,1.8103237E3,4.490716E2,3.2604256E1,1.0153453E2,1.3567671E2,7.262103E1,8.719641E0,2.2065246E0,1.1791321E2,6.760075E1,1.1292139E2,9.5100934E2,3.5881298E1,5.199792E1,4.3988992E2,3.0976062E2,5.0412945E1,1.0400439E2,2.6468601E0,5.913303E0,6.2875147E0,1.174017E2,3.6187082E2,1.9677057E2,2.2909763E0],"tree_param":{"num_deleted":"0","num_feature":"165","num_nodes":"77","size_leaf_vector":"1"}},{"base_weights":[-6.1677895E-3,6.68884E-1,-7.920501E-1,1.1714771E0,-1.06739715E-1,-1.0585685E0,4.42553E-2,-5.125187E-1,1.1973914E0,6.8039876E-1,-6.6358924E-1,-5.9838635E-1,-1.1312695E0,5.3565866E-1,-9.974905E-1,-1.194401E0,8.5591185E-1,1.2026409E0,-5.9561033E-2,-9.805775E-1,8.410104E-1,-7.740686E-1,9.249696E-1,-8.819979E-1,6.861954E-1,3.558586E-1,-1.1468484E0,9.229679E-1,-7.879192E-1,-7.249012E-2,-6.1363906E-2,-7.027449E-2,1.1541217E-2,6.138279E-2,-4.6188794E-2,1.2060435E0,-7.8784935E-2,6.0103613E-1,-1.1855484E0,-5.279503E-1,9.168313E-1,-1.1777549E0,-4.9246922E-1,-5.9940834E-2,1.2806671E0,-5.2348655E-1,-1.2619883E0,1.6212894E0,-6.423869E-2,-5.792437E-2,1.4032495E0,-1.1550857E0,1.3168797E-1,1.1122605E0,-5.954519E-2,1.06451474E-1,-6.27397E-2,-6.548541E-2,1.1301242E0,6.038946E-2,-4.866828E-2,5.8950283E-2,-4.0774103E-2,-6.626032E-2,4.741582E-2,4.842424E-2,-7.1206674E-2,4.800763E-2,-5.673678E-2,2.1104703E-2,-5.982998E-2,-8.907427E-3,-5.2630063E-2,6.967444E-2,-5.439049E-2,-5.803602E-2,5.0688727E-4,-6.641395E-2,-3.2594256E-2,9.107885E-2,-4.8271343E-2,2.6715297E-2,8.0577716E-2,-6.060773E-2,-5.0626595E-2,1.190113E-1,-5.4731097E-2,5.9157528E-2,-6.129368E-2,-6.1999865E-2,4.6119984E-2,-5.581529E-2,8.952883E-2],"categories":[],"categories_nodes":[],"categories_segments":[],"categories_sizes":[],"default_left":[0,0,0,0,0,0,0,0,0,0,0,0,0,0,0,0,0,0,0,0,0,0,0,0,0,0,0,0,0,0,0,0,0,0,0,0,0,0,0,0,0,0,0,0,0,0,0,0,0,0,0,0,0,0,0,0,0,0,0,0,0,0,0,0,0,0,0,0,0,0,0,0,0,0,0,0,0,0,0,0,0,0,0,0,0,0,0,0,0,0,0,0,0],"id":21,"left_children":[1,3,5,7,9,11,13,15,17,19,21,23,25,27,29,31,33,35,-1,37,39,41,43,45,47,49,51,53,55,57,-1,-1,-1,-1,-1,59,-1,61,63,65,67,69,71,-1,73,75,77,79,-1,-1,81,83,85,87,-1,89,-1,-1,91,-1,-1,-1,-1,-1,-1,-1,-1,-1,-1,-1,-1,-1,-1,-1,-1,-1,-1,-1,-1,-1,-1,-1,-1,-1,-1,-1,-1,-1,-1,-1,-1,-1,-1],"loss_changes":[3.1254473E3,1.2355397E3,6.068048E2,8.4538574E1,5.4704626E2,6.838843E1,3.3780417E2,2.8871992E1,2.5185303E1,1.3879132E2,1.2898373E2,1.03987465E2,4.168457E1,2.3055005E2,4.487018E1,6.4429398E0,8.086454E0,1.9773682E1,0E0,1.5644913E1,4.9487E1,7.7161896E1,3.778012E1,3.1065323E1,9.770401E1,3.2132507E1,1.8723633E1,1.4028864E2,4.273681E1,6.568622E1,0E0,0E0,0E0,0E0,0E0,8.362305E0,0E0,5.8311834E0,1.3508896E1,3.5456738E1,4.0879395E1,8.955841E0,7.1042595E1,0E0,1.2626656E1,4.1339767E1,3.6778564E0,2.0218025E1,0E0,0E0,1.2787914E0,1.3027588E1,3.6207058E1,5.4368256E1,0E0,4.0601585E1,0E0,0E0,3.5260925E1,0E0,0E0,0E0,0E0,0E0,0E0,0E0,0E0,0E0,0E0,0E0,0E0,0E0,0E0,0E0,0E0,0E0,0E0,0E0,0E0,0E0,0E0,0E0,0E0,0E0,0E0,0E0,0E0,0E0,0E0,0E0,0E0,0E0,0E0],"parents":[2147483647,0,0,1,1,2,2,3,3,4,4,5,5,6,6,7,7,8,8,9,9,10,10,11,11,12,12,13,13,14,14,15,15,16,16,17,17,19,19,20,20,21,21,22,22,23,23,24,24,25,25,26,26,27,27,28,28,29,29,35,35,37,37,38,38,39,39,40,40,41,41,42,42,44,44,45,45,46,46,47,47,50,50,51,51,52,52,53,53,55,55,58,58],"right_children":[2,4,6,8,10,12,14,16,18,20,22,24,26,28,30,32,34,36,-1,38,40,42,44,46,48,50,52,54,56,58,-1,-1,-1,-1,-1,60,-1,62,64,66,68,70,72,-1,74,76,78,80,-1,-1,82,84,86,88,-1,90,-1,-1,92,-1,-1,-1,-1,-1,-1,-1,-1,-1,-1,-1,-1,-1,-1,-1,-1,-1,-1,-1,-1,-1,-1,-1,-1,-1,-1,-1,-1,-1,-1,-1,-1,-1,-1],"split_conditions":[-3.7718505E-1,-8.5176224E-1,1.2283126E0,-2.0096247E-1,-1.0613744E-1,-3.5727948E-1,-3.00171E-1,5.419305E-1,-4.6408278E-1,-2.371759E-1,4.085964E-1,4.085964E-1,-1.8782978E-1,-4.0045384E-2,-6.4656365E-1,2.2312327E-1,7.8483814E-1,2.7281523E-1,-5.9561033E-2,-2.0496552E0,-1.0704613E-1,-1.1547854E-1,-8.7741977E-1,-4.149185E-1,-1.1685839E-5,-1.3436298E-1,4.9204683E0,4.5288092E-1,-3.7692735E-1,-4.7941718E-1,-6.1363906E-2,-7.027449E-2,1.1541217E-2,6.138279E-2,-4.6188794E-2,3.1949E-1,-7.8784935E-2,-2.6521742E-1,-1.4133911E-1,-1.0068822E0,-3.1875357E-2,-5.461632E-1,-3.3314323E-1,-5.9940834E-2,1.8839366E0,-1.708558E-1,-3.4246624E-1,-4.9253915E-2,-6.423869E-2,-5.792437E-2,6.77615E-1,-1.5212394E-1,-2.174679E-1,-9.530435E-2,-5.954519E-2,